{"3x3":{"net.0.weight":[[-0.096999,-0.15538,0.125983,-0.410262,0.123477,0.265567,-0.033068,-0.492705,0.27579,0.191773,-0.370516,0.181374,0.078396,-0.223635,0.012414,-0.03429,0.152808,-0.288177,0.07848,0.159614,0.088411,-0.299617,-0.206919,0.153672,-0.091246,0.036387,-0.142815,0.160862,0.017953,0.090283,-0.07225,0.130375,0.105611,-0.216662,-0.000851,-0.239063,0.023061,0.117662,-0.030904,-0.173953,-0.118956,-0.013429,-0.125544,0.18881],[-0.092383,-0.0463,0.055043,0.150391,0.388581,0.182516,0.493447,0.005368,0.142598,0.013292,-0.075879,-0.068126,-0.041874,-0.214756,0.07166,0.312524,0.121664,0.274624,-0.182007,0.025223,0.237787,0.03462,-0.099069,-0.101098,-0.311901,-0.490852,-0.289303,-0.535338,-0.009577,0.110175,-0.098775,-0.01642,0.132861,0.091393,-0.278571,-0.07324,-0.467346,-0.121305,-0.009717,-0.134402,-0.09094,0.040381,-0.351301,0.052082],[-0.075323,-0.164592,0.10397,0.069719,0.361828,0.211219,0.083181,0.116036,-0.232662,0.01973,0.186304,-0.134258,0.081917,0.024716,0.016509,0.416302,0.023607,0.237763,-0.153208,-0.069833,0.227595,0.083392,0.205823,-0.587727,-0.370095,-0.551207,-0.309018,-0.356007,-0.440034,0.123905,-0.090455,-0.383019,0.159939,-0.161744,-0.33617,-0.308337,-0.409577,-0.225894,0.045172,-0.119305,-0.119888,0.086862,-0.289664,-0.023247],[-0.060868,0.072584,-0.223217,-0.146089,-0.075115,-0.231463,-0.143586,-0.162395,0.029322,0.035067,-0.216341,0.099552,0.049922,-0.176072,-0.711989,-0.332892,0.184133,0.176252,0.183771,0.142834,-0.213287,-0.172682,-0.498671,-0.088215,0.165255,0.124601,0.240074,0.020872,0.060441,-0.015453,0.026213,0.057385,0.070096,0.062945,0.203633,0.193786,0.076401,-0.02603,0.080922,0.153402,0.178203,-0.06615,0.348705,0.159127],[0.05318,-0.177633,-0.160818,0.030882,0.189934,0.224974,-0.047439,0.281976,0.071896,0.079474,0.212405,0.082377,0.148478,0.199355,-0.000491,0.112448,0.046157,0.333818,0.285876,0.315087,0.140166,0.233862,0.024223,0.084752,0.024366,-0.059136,-0.026739,-0.027671,-0.394078,-0.301941,-0.102487,-0.211691,0.106468,-0.121409,-0.188495,-0.162974,-0.106469,-0.209451,-0.18317,-0.044813,-0.352059,-0.098153,-0.613527,-0.12694],[-0.03311,-0.070719,-0.08372,-0.141731,0.126882,0.360202,-0.457858,0.29978,0.252305,-0.063876,0.131441,0.05609,0.104299,0.158053,0.027084,0.033878,-0.164093,-0.203566,0.360147,0.445024,0.024717,-0.090819,-0.205111,-0.034523,0.00136,-0.477041,-0.015893,0.004561,-0.03435,-0.495462,0.025145,-0.193387,0.299898,-0.00991,-0.438135,0.081408,-0.039158,-0.118791,-0.60988,0.05317,-0.109468,-0.06756,-0.179614,-0.108541],[-0.039134,0.063391,-0.027297,-0.283145,0.54719,0.117854,0.087089,0.273252,0.13641,0.088658,0.025823,0.074098,0.106277,0.532937,0.073966,0.042279,-0.034247,0.133436,0.059239,0.190692,-0.063614,0.014316,-0.134258,0.064155,-0.148501,-0.572092,-0.098054,-0.113988,-0.490668,-0.079989,0.038438,-0.019105,-0.024273,-0.066998,-0.526706,-0.101604,-0.108647,-0.276497,-0.128012,-0.028795,-0.152185,0.086246,-0.39039,-0.143273],[-0.191763,-0.10434,0.251282,-0.19284,0.253875,0.212229,0.032252,0.166087,-0.398228,0.162021,0.095757,-0.117072,-0.264188,-0.144449,0.287446,0.159654,-0.165527,0.150253,-0.230603,-0.520078,0.235878,0.338317,0.43151,0.01296,0.324348,0.011237,-0.254451,0.134337,0.02545,0.135671,-0.233504,-0.057375,-0.227281,0.258696,0.109316,-0.191005,0.124649,0.190253,0.219823,-0.149101,-0.02746,-0.170495,0.104681,-0.093064],[-0.063907,0.024343,0.130852,-0.205761,-0.138466,0.096363,0.495883,0.191444,-0.353957,0.213404,0.058319,-0.144578,-0.379085,-0.467317,-0.130889,0.114696,0.10655,0.328055,-0.178908,0.016102,0.050452,0.315954,-0.222618,-0.340763,0.29207,0.057426,0.040218,-0.231557,0.296414,-0.005135,-0.107993,-0.222495,0.233875,0.293078,-0.002776,0.032844,-0.207816,0.229831,-0.071153,-0.10796,-0.270979,0.024504,-0.01272,-0.035838],[-0.158634,0.043987,0.201206,-0.021716,0.344754,0.431632,0.048978,0.228098,0.056605,-0.021771,-0.009962,0.15271,0.07913,0.096005,0.300727,0.422675,0.059793,0.046708,0.245243,0.088922,0.088211,0.002893,0.000544,0.051733,0.081262,-0.251109,-0.323181,0.014397,-0.129011,-0.020201,-0.174641,0.030764,-0.118581,-0.027268,-0.139713,-0.58467,0.004682,-0.22055,-0.086646,0.018438,0.075613,-0.162173,-0.585127,0.08887],[-0.271513,0.02319,-0.123471,-0.73639,0.163324,-0.273938,0.238352,0.069365,0.153356,0.275162,0.167337,0.114916,-0.53098,-0.450035,-0.004079,-0.106662,-0.008538,0.425729,0.021846,0.095124,0.064472,0.079354,0.06818,-0.071418,0.04213,-0.194921,0.15478,-0.303998,0.093166,-0.025845,0.06454,0.091963,0.09959,0.00938,-0.092546,0.037435,-0.106116,0.147901,-0.099953,0.12777,-0.02539,0.149995,0.116598,-0.058392],[-0.00796,-0.013281,-0.042461,0.355437,0.10634,-0.112428,0.58349,-0.263319,0.223672,0.322313,-0.348781,0.165854,0.169932,0.069224,-0.05417,-0.087312,0.12661,0.250024,-0.005429,0.095407,0.323886,0.097796,-0.227171,0.160817,-0.203984,0.019908,0.099902,-0.137032,-0.133458,-0.081857,-0.594141,0.288584,-0.185316,-0.241126,0.003724,0.144068,-0.293161,-0.057402,-0.055476,-0.542424,0.202806,-0.132804,-0.354505,0.075016],[0.101753,-0.209435,0.008564,0.16402,0.261242,0.256008,-0.003838,0.245137,0.063323,-0.160821,0.269606,0.117792,0.202741,0.239156,0.079562,0.324376,0.160543,0.163974,0.118764,0.148541,-0.022663,0.076162,0.131514,0.185883,-0.167246,-0.375842,-0.177598,-0.038267,-0.101574,0.104132,0.209082,-0.168599,-0.063571,-0.170479,-0.289782,-0.268263,-0.209636,-0.165766,-0.015602,0.114623,-0.236396,-0.130885,-0.673276,-0.150345],[0.261126,0.280672,0.202375,-0.360184,0.017822,-0.07662,-0.593062,-0.088684,-0.09712,0.166325,-0.033241,0.136786,0.329977,-0.100171,-0.089493,0.026847,-0.563076,-0.652708,-0.073215,-0.11846,0.053353,-0.041024,0.057587,0.147627,0.122326,-0.037117,0.008091,0.081206,0.012498,0.131475,0.030326,0.078619,-0.014641,0.0521,-0.101299,0.103838,0.071966,0.101988,0.108567,0.114666,0.228456,0.121011,0.060181,0.023656],[-0.099173,-0.16985,0.202678,-0.343616,-0.233869,-0.258748,0.037116,0.171126,-0.216459,-0.075793,0.363852,0.153384,-0.18714,-0.43651,-0.310768,0.215796,0.199418,0.234844,-0.039102,-0.225065,0.012811,0.147325,-0.075044,-0.168842,0.181152,0.369057,0.083343,0.097842,0.022183,0.194813,0.248358,-0.014135,0.091667,0.160866,0.202323,0.077285,0.106617,-0.102507,0.133662,0.222096,-0.070773,0.27869,0.084276,0.221056],[0.055754,0.061664,0.002582,0.054816,-0.058243,0.408298,0.075838,0.116244,0.392536,0.022018,0.118942,0.01676,0.142415,0.113014,0.00129,-0.09562,0.118719,0.010518,0.308859,0.208349,0.065105,0.168462,-0.2563,0.009733,-0.073153,-0.250456,-0.012554,-0.119072,0.130583,-0.450195,-0.031071,-0.165323,-0.03156,-0.239924,-0.097192,-0.054253,-0.065907,-0.012505,-0.588559,-0.219358,-0.025403,0.007179,-0.436334,0.042558],[-0.206429,-0.218873,0.091209,-0.097716,0.074137,0.242601,-0.208391,0.042756,0.413975,-0.177989,0.09455,0.181633,-0.144218,-0.206563,0.011917,0.147908,0.038229,-0.024318,0.078773,0.163562,-0.131516,-0.129426,-0.100749,0.103377,0.144241,-0.012157,-0.207021,-0.194466,-0.138427,-0.450491,-0.172687,-0.157755,-0.337799,0.032225,-0.101014,-0.221693,-0.16019,-0.184856,-0.28775,-0.06167,-0.07748,-0.21758,-0.231267,0.030655],[-0.071915,-0.071192,0.113905,0.177069,0.151118,0.209006,0.465826,0.251864,-0.353879,0.243378,-0.081892,0.127782,0.13471,-0.235668,-0.165965,0.284475,-0.177041,-0.093283,0.071073,-0.537377,0.127289,0.057515,-0.054276,0.136621,-0.073705,-0.09987,-0.229757,-0.362287,-0.113825,0.094782,-0.330891,-0.298923,-0.278627,-0.051542,-0.163704,-0.127773,-0.143537,-0.134644,0.138609,-0.432408,-0.180888,-0.004706,-0.292598,-0.17818],[0.151168,-0.067005,-0.134634,-0.212414,-0.730244,0.141044,0.305208,-0.175621,-0.020979,-0.179758,0.033076,0.16783,0.198323,-0.39529,0.462998,0.165801,0.011168,-0.752094,0.136695,-0.077567,-0.140142,-0.278341,0.159126,-0.047416,-0.444074,-0.120584,0.269793,-0.093679,-0.299296,0.027151,0.324045,0.225082,0.032513,-0.285459,-0.05946,0.115279,0.202404,-0.077483,0.095179,0.313268,0.149379,-0.066406,-0.156499,0.128713],[-0.089932,-0.062398,0.064382,-0.486846,-0.417338,-0.305784,-0.331007,-0.03485,-0.007514,-0.087878,0.069746,0.206268,-0.014623,-0.454192,-0.194542,0.12381,-0.202963,-0.262643,-0.220317,-0.028578,-0.103885,-0.345068,0.157076,0.384171,0.247689,-0.049288,0.095035,0.196779,0.165147,0.136262,0.09385,0.0591,-0.005786,0.208732,0.20056,0.108195,0.260184,0.161969,0.124431,0.172401,-0.012996,-0.079115,0.374918,0.123792],[-0.19338,0.054845,0.047742,0.38965,0.181444,-0.025178,0.544331,0.00836,0.056394,-0.064737,-0.169037,0.024486,-0.170343,0.016,0.213199,0.002025,0.393684,0.558972,0.060904,0.025255,-0.247452,-0.265649,0.014486,-0.035314,0.284331,-0.218759,-0.05333,-0.836843,-0.023167,-0.063623,0.136564,0.104185,-0.111045,0.2258,-0.102523,0.00624,-0.669205,0.004593,-0.052867,0.152225,0.179876,-0.062508,-0.258522,0.082244],[-0.204086,-0.076659,0.00867,0.290816,0.133691,0.28107,0.330882,0.466591,0.071579,0.023028,0.093552,-0.125496,-0.015402,-0.245307,0.11633,0.106395,0.125213,0.368167,0.422915,0.145056,0.124446,0.087608,-0.034244,0.048834,0.141996,0.05965,-0.155628,-0.189355,-0.486919,-0.19361,-0.181928,-0.204183,0.109855,0.142719,0.065981,-0.035996,-0.222692,-0.427131,-0.2045,-0.137674,-0.202389,0.021988,-0.329298,0.089412],[0.170737,0.198779,-0.021143,0.209104,0.443351,-0.600369,-0.06405,0.368491,-0.682637,-0.035176,0.120419,-0.173496,0.041167,0.194586,-0.300257,-0.394015,0.124787,0.297506,-0.105837,-0.300102,-0.070094,0.288162,-0.093564,-0.371744,0.140641,-0.070987,0.136472,0.168844,0.167653,0.02352,0.086621,0.004234,0.265429,-0.035194,-0.082565,0.184734,0.139666,0.128783,0.196131,0.016141,0.012968,0.11328,0.036908,-0.009798],[-0.060081,0.144691,-0.126494,0.398715,0.258653,-0.104718,0.126153,-0.10062,0.039818,-0.118642,0.151689,0.093904,0.068317,-0.098287,0.024825,0.070268,0.209195,0.240891,-0.259417,-0.194793,-0.13505,-0.389304,0.356809,0.185465,0.041423,-0.118198,-0.096048,-0.810184,0.183175,0.138929,0.267318,-0.097612,-0.117605,-0.027408,-0.182513,0.001009,-0.639297,0.098008,0.149715,0.201722,-0.07142,-0.235103,-0.288041,-0.259762],[-0.211971,0.172715,0.028606,-0.128063,-0.121736,-0.376998,-0.071139,0.137664,-0.418685,0.141851,0.223352,0.097384,-0.116872,0.149674,-0.003842,0.017548,-0.153918,-0.288996,-0.598583,0.020778,-0.021709,0.391967,0.23378,-0.03633,0.069475,0.321076,0.133886,0.116303,-0.231195,0.001563,0.148458,0.073802,0.006995,0.105612,0.273563,0.109689,0.098951,-0.075532,-0.00651,0.142392,-0.058796,0.127249,0.09291,0.026133],[-0.242068,0.294933,-0.003267,-0.32931,0.064302,-0.223834,-0.018302,-0.001923,-0.330742,0.148134,-0.002055,-0.352563,-0.506258,0.087334,0.047547,-0.045244,0.199624,-0.134728,0.155853,0.385154,0.014957,-0.00945,-0.176851,-0.247895,0.030767,-0.282085,8.9e-05,-0.256816,0.121916,-0.295869,0.215429,-0.169545,0.121125,0.052171,-0.106829,0.138647,-0.02726,0.241076,0.026996,-0.085662,-0.258425,0.119746,0.124175,-0.049819],[0.018486,-0.110656,0.304402,-0.152699,0.135352,0.420032,0.140677,0.169349,-0.113312,0.113382,-0.009098,0.038269,-0.008434,0.148498,0.329689,0.471826,0.08041,0.158647,-0.051,-0.03035,0.158294,0.180188,-0.076072,0.053071,0.001858,-0.186682,-0.558759,-0.195188,-0.072885,0.050796,-0.117196,-0.01136,-0.028766,-0.096391,-0.345446,-0.586551,-0.156043,-0.073729,0.064878,-0.27762,0.05336,-0.134252,-0.457978,-0.121373],[0.104259,-0.000458,0.029324,-0.586183,-0.190399,0.072992,-0.53405,-0.097955,0.14173,-0.004912,0.084949,0.115415,-0.179751,-0.656465,-0.233067,-0.119558,-0.15147,-0.395241,0.142637,-0.055147,0.014706,0.062138,0.099265,-0.004463,-0.024478,0.020021,0.016687,0.000748,0.092649,-0.129091,-0.056705,-0.13461,-0.046785,0.149034,0.158376,0.110886,0.022748,0.139,-0.072049,0.044463,-0.010882,-0.228253,0.426536,0.036993],[-0.07605,0.096761,0.159329,0.073525,0.181415,0.16867,-0.253086,0.341733,-0.117408,-0.043069,0.401363,0.013566,-0.145912,0.2244,0.346599,0.25609,0.005091,0.113251,0.123439,-0.053201,0.08136,0.37712,0.299156,-0.008579,0.088281,-0.426728,-0.364053,-0.227541,-0.104813,0.015178,-0.055827,-0.546449,-0.051523,0.026789,-0.318421,-0.181064,-0.145882,-0.137873,-0.019754,-0.02148,-0.344034,-0.037608,-0.519201,0.029866],[-0.048383,-0.027189,0.05027,-0.081627,0.236669,-0.046819,-0.153588,0.002126,0.00688,0.006042,0.285514,-0.204031,0.162811,0.005726,0.029576,0.383395,0.06927,0.221214,0.006809,-0.033263,0.124606,0.396938,0.291455,-0.121207,-0.306107,-0.598792,-0.140874,-0.071557,-0.069381,-0.131314,-0.10457,-0.399371,0.024491,-0.313397,-0.512217,-0.141765,-0.268934,-0.097951,-0.094666,0.00508,-0.477065,0.164366,-0.419587,0.016734],[0.046185,-0.278007,-0.067746,-0.139385,-0.400145,0.018868,-0.187623,0.131191,-0.030222,-0.252608,-0.079236,0.110623,0.117701,-0.578705,-0.491528,-0.007831,0.12811,0.238726,0.106202,0.167765,-0.12801,-0.336509,-0.035298,0.053871,-0.076878,-0.020963,-0.008148,-0.052906,0.07721,0.021785,-0.050178,-0.070481,-0.010246,0.071809,-0.103541,0.072475,-0.014909,0.090712,-0.136673,0.020264,-0.079444,-0.113987,0.238172,-0.114049],[-0.009832,0.036578,0.110196,0.05557,0.042457,0.08873,-0.779107,-0.136924,0.061602,-0.289176,-0.190842,0.206793,0.11641,0.169476,0.255093,0.064531,0.104479,0.277126,0.208161,0.026593,-0.276839,-0.632314,-0.276299,0.112113,0.007913,0.028912,0.047677,-0.254504,0.222098,-0.002329,-0.099425,-0.031402,-0.144479,0.051256,-0.041099,0.110901,-0.248374,0.287404,-0.07097,0.09057,-0.185342,-0.03083,-0.112316,-0.094895],[0.12083,0.156162,0.01687,-0.104544,-0.109113,-0.256016,-0.408876,0.219821,0.022414,-0.345074,0.335451,0.057376,0.13855,-0.024524,-0.366888,-0.323969,-0.163688,0.029668,0.206091,-0.01893,-0.37749,-0.157843,0.250169,-0.028952,0.169835,0.068348,0.339918,-0.008481,0.096444,0.076479,0.209466,-0.089828,0.139005,0.165121,0.097945,0.189122,-0.059552,0.074558,0.225782,0.309929,-0.05466,0.142087,-0.013132,0.070655],[0.178091,-0.047638,0.063099,0.334824,0.015492,0.158081,-0.724401,-0.159341,0.161331,-0.477476,0.080868,0.171099,0.025495,-0.102834,-0.187602,-0.004879,0.276351,0.085801,0.155038,0.173511,-0.752187,-0.638204,-0.021301,0.11234,-0.018182,0.106697,-0.067779,-0.405788,0.097822,-0.223234,-0.12072,-0.068945,-0.102889,0.054254,0.156543,0.007687,-0.279403,0.077092,-0.284278,-0.009905,-0.076658,-0.140632,0.487606,-0.007668],[0.26198,-0.171722,0.117796,-0.003822,-0.598949,-0.188694,0.072984,0.047443,0.030491,0.212781,-0.03631,-0.035625,0.179971,-0.487588,-0.575356,-0.190613,-0.189802,-0.031596,0.01101,-0.017344,0.113458,0.204685,0.064754,-0.052452,-0.186921,0.157157,0.112142,0.023071,-0.042532,-0.105659,-0.157775,-0.079591,-0.063226,-0.278314,0.028669,0.191836,0.043726,0.059454,-0.12143,-0.154273,-0.098296,-0.07367,0.37302,0.164206],[0.067493,-0.145647,0.137027,0.261396,0.237274,-0.017347,0.14023,0.327529,-0.198628,-0.020697,0.033121,-0.043454,0.350172,0.173025,0.304921,0.156981,0.103109,0.273288,0.325088,0.056229,0.012914,-0.177729,0.055117,-0.069932,-0.405282,-0.164239,-0.239094,-0.30247,-0.434595,0.031399,-0.032927,-0.016491,-0.006991,-0.377971,-0.276355,-0.365052,-0.247976,-0.437902,-0.070589,-0.070552,0.022071,-0.059719,-0.363325,-0.170742],[-0.312177,0.102923,-0.188434,-0.551739,0.273051,-0.047573,-0.556036,0.297317,0.126123,-0.078221,0.360572,0.282897,-0.344384,-0.243998,0.087573,-0.232566,-0.207297,0.309853,0.142975,0.173841,-0.052282,0.197716,0.368016,0.247506,0.180676,-0.184676,0.052205,0.059479,-0.175682,-0.031889,-0.125689,-0.37417,-0.179872,0.249056,-0.26383,-0.076974,-0.053941,-0.296095,-0.114688,-0.153857,-0.581654,-0.212962,-0.081078,-0.157617],[-0.2096,-0.095864,-0.115624,-0.171039,-0.326449,-0.161089,0.243999,-0.316552,-0.248806,0.280815,-0.044768,0.176237,-0.085877,-0.329789,-0.125354,-0.109999,-0.093421,-0.077512,0.066411,0.374848,0.486943,-0.373375,-0.025776,0.058195,0.279793,0.157758,0.214456,0.161075,0.208795,-0.220828,-0.027411,0.149778,0.050968,0.24867,0.208737,0.27372,0.250434,0.072889,-0.077125,-0.055173,0.395386,0.060697,0.117727,-0.086164],[-0.094001,-0.080056,0.065915,-0.152136,0.517021,-0.215756,-0.13145,0.552918,-0.17411,-0.007619,0.054731,0.085042,0.049504,-0.200981,-0.07901,0.199585,0.13884,0.513135,0.528378,-0.003391,0.287789,-0.004127,-0.145431,0.045289,0.019529,0.014379,-0.103948,-0.243075,-0.540575,-0.12716,-0.291747,-0.024196,0.065414,0.054159,0.023825,-0.215283,-0.400759,-0.656754,0.017857,-0.438468,-0.102427,0.001391,-0.559741,0.072538],[0.081761,0.330014,-0.176065,-0.157817,0.273384,-0.120785,-0.71876,-0.190244,-0.180435,-0.17548,-0.168911,-0.118569,-0.011115,0.118693,-0.030904,-0.157593,-0.011254,0.05981,0.081996,0.003721,-0.159169,-0.471277,-0.130028,0.132109,0.130854,0.157112,0.287984,-0.030082,-0.016052,-0.178408,0.193049,0.105347,-0.023497,0.192368,-0.045472,0.255185,0.063258,-0.090861,-0.006167,0.282527,0.253145,-0.057212,0.132477,0.154531],[0.062357,-0.160137,-0.070937,0.490031,0.17978,-0.223314,0.011744,-0.167823,0.519271,-0.136022,0.144946,0.387924,0.140235,-0.191188,0.055074,-0.169811,0.077565,0.232187,0.214952,0.136689,-0.183719,-0.255396,-0.174085,0.263605,-0.186298,-0.26415,0.009615,-0.612059,-0.124191,-0.172262,0.040206,-0.209621,-0.528242,-0.252774,-0.328636,-0.026773,-0.510009,-0.172765,-0.125328,0.001023,0.055448,-0.053702,-0.204399,-0.202613],[0.238039,0.059303,-0.016373,0.040102,0.266625,0.032526,0.052652,-0.071799,-0.049651,0.069916,-0.327113,-0.101002,-0.071776,0.171742,-0.163236,-0.437671,0.012673,0.051255,-0.091894,-0.110594,-0.299425,-0.067167,-0.185867,-0.217375,-0.248482,-0.506519,-0.110821,-0.555494,-0.208751,-0.240183,-0.240018,0.021433,-0.173338,-0.189736,-0.114082,-0.166874,-0.081836,-0.194028,-0.073764,-0.121072,0.198082,-0.047635,0.49814,-0.284044],[9e-05,-0.137364,-0.071725,-0.138856,0.352272,-0.199979,0.668619,-0.065923,-0.164283,0.220414,-0.095329,-0.055156,-0.074224,-0.196469,-0.154899,-0.083386,-0.289951,0.132418,-0.072811,-0.106965,0.171392,0.205705,-0.257514,-0.188063,-0.01842,-0.001111,0.172592,-0.083375,-0.197463,0.079445,-0.737737,0.06908,0.053816,0.034817,0.120556,0.095212,0.153663,0.051309,0.077295,-0.665723,0.094801,0.17598,-0.200683,-0.287505],[0.017549,0.019574,0.291557,0.072822,-0.271496,0.517759,0.172117,-0.261233,0.292238,0.059471,-0.322056,0.067767,-0.058709,-0.122596,0.105904,0.284469,-0.03368,-0.084858,0.231201,0.340945,-0.142796,-0.301499,-0.251269,-0.192989,0.008519,0.172681,-0.470763,0.150462,0.35004,-0.457988,-0.122717,0.157325,0.038673,0.021957,0.181981,-0.378645,0.262013,0.377292,-0.319678,-0.113037,0.221271,-0.13537,-0.215859,0.097067],[0.138071,0.209668,0.254084,-0.248708,-0.337476,-0.308742,0.10515,-0.187664,-0.259806,0.111038,-0.106401,0.152172,0.031159,-0.007191,0.203326,0.187844,0.217073,-0.322519,-0.301773,-0.535508,0.046322,-0.126144,-0.333256,-0.030913,0.043239,0.089392,-0.205174,0.125161,0.250347,0.177429,-0.05987,0.131363,0.155489,-0.00599,0.187786,-0.233991,0.068087,0.274043,0.245176,-0.152463,0.124228,0.150596,0.136119,0.02938],[0.172233,0.263945,0.083725,0.067164,0.186703,-0.19934,-0.003616,-0.113434,-0.206818,0.173324,-0.195999,-0.152993,0.199653,0.135559,-0.23951,0.042964,-0.121788,0.029243,-0.486847,-0.367971,-0.155894,-0.183969,-0.483511,-0.271178,-0.173126,-0.357228,-0.133069,-0.115781,-0.089015,0.250843,0.016209,0.130271,0.166651,-0.108208,-0.235396,0.071631,-0.025242,-0.129945,0.210591,-0.049706,0.173798,0.197341,0.540028,-0.092405],[-0.045165,0.05897,0.154382,-0.039587,0.066254,0.288485,-0.208633,-0.123102,-0.526812,0.060794,-0.015357,-0.309916,-0.100014,-0.008713,0.136065,-0.021005,-0.127296,-0.071632,0.32415,0.123876,-0.183993,-0.19726,-0.455372,-0.329516,0.033955,-0.033926,-0.093767,0.160815,0.105194,-0.115478,0.22775,0.101848,0.162572,0.054569,-0.005198,-0.108119,0.007283,0.02976,-0.073574,0.080992,0.167483,0.166106,0.393196,-0.149467],[-0.09736,-0.008438,0.134647,-0.312394,-0.321576,-0.305174,-0.186036,-0.247485,-0.037503,-0.057319,0.233298,0.038537,-0.064663,-0.171503,-0.761943,0.03117,0.246936,-0.088321,-0.677287,-0.030486,0.209365,0.058178,-0.577164,0.154109,0.14894,0.374917,0.263094,0.150343,0.174027,-0.003379,0.164978,-0.045469,-0.063987,0.117232,0.222868,0.061247,0.037321,-0.025898,-0.048304,0.166144,-0.029015,-0.064668,0.445336,-0.120729],[0.020802,-0.198961,0.082349,0.00343,0.01037,0.24213,-0.255095,0.216916,0.251449,0.061682,0.168095,0.146671,0.09316,-0.048524,-0.339265,0.335443,0.039351,0.018733,0.229342,0.090501,0.147937,0.092107,-0.243633,0.270292,-0.159604,0.173153,-0.154798,0.011305,-0.320404,-0.233688,-0.076424,-0.147506,-0.079542,-0.080776,0.139598,-0.064032,-0.033999,-0.17388,-0.165445,-0.41171,-0.326995,-0.225308,-0.48746,-0.206464],[0.115862,0.012965,0.013475,0.287384,0.222857,-0.378597,-0.336047,0.087899,-0.340634,-0.074991,-0.26804,-0.113781,0.269028,0.122994,0.130493,-0.217749,0.137144,0.482512,0.437569,-0.196088,-0.133568,-0.291294,-0.199243,-0.280172,-0.0141,0.25894,0.168233,0.104875,-0.068226,0.117147,0.143141,0.324132,0.127897,-0.17247,0.280503,0.100555,0.163238,-0.118989,0.066042,0.103205,0.314106,0.077323,0.07481,0.14635],[0.143645,0.131393,-0.030729,0.58171,-0.199903,-0.210562,0.413542,-0.185715,-0.167349,0.007953,0.069832,-0.056174,0.054174,0.013866,-0.283271,-0.30725,0.239333,0.085251,-0.301228,0.173356,0.071856,-0.159208,-0.284465,0.082676,-0.047565,-0.274052,0.048605,-0.514493,-0.24001,-0.011797,0.089678,-0.18156,0.083283,-0.173059,-0.209087,0.097855,-0.343068,-0.096401,-0.067184,-0.031998,-0.193987,0.089277,0.048873,0.061282],[0.249356,0.023497,-0.082896,0.235928,0.076075,0.008016,-0.176618,-0.238242,0.361663,0.130588,0.012884,0.206653,0.305103,0.30989,-0.092349,-0.436294,-0.106033,-0.269192,0.052109,-0.045997,0.086539,0.122855,0.099779,0.174216,-0.300456,-0.316745,0.10271,0.250245,0.20777,-0.050251,-0.084812,0.126557,-0.177122,-0.411345,-0.33335,-0.076565,0.026341,0.106788,-0.085466,-0.068855,0.075376,-0.15979,-0.235859,-0.00315],[0.173126,0.281432,0.003331,0.05716,-0.00984,-0.169852,-0.589069,-0.973182,-0.384663,0.016313,0.025411,0.154991,0.084881,-0.075285,-0.069314,0.165149,-0.081697,-0.307774,-0.355134,0.073127,0.22994,-0.493496,-0.317784,0.276365,-0.018838,-0.057456,-0.046131,-0.051971,0.073745,0.145936,0.222271,-0.117749,0.056428,-0.05832,0.021043,-0.039537,0.022758,-0.059771,-0.016744,-0.006002,-0.188879,0.052799,0.119636,-0.163957],[-0.293942,-0.195479,-0.262662,-0.315189,-0.20049,0.061389,0.45439,0.188969,-0.232654,-0.089244,0.099019,-0.072602,0.023959,-0.66706,-0.375163,-0.285094,0.279147,0.425035,0.348395,0.191155,0.041148,0.082497,0.108337,-0.043683,0.007089,-0.291351,0.133934,-0.359884,0.011178,-0.076404,0.02604,-0.015103,0.332286,-0.059516,-0.256074,0.209918,-0.346855,-0.009504,-0.151835,-0.001714,0.043374,0.242243,-0.036369,-0.024282],[-0.047188,0.053899,0.004092,0.299409,0.206059,0.161131,0.199831,0.468086,-0.206702,0.078458,0.39905,-0.029928,0.16468,-0.058834,0.194559,0.090365,0.080483,0.087676,0.034543,0.303991,-0.014262,0.357368,0.016132,-0.290157,-0.08957,-0.317369,-0.039012,-0.407643,-0.183981,-0.241405,-0.084539,-0.619112,0.21835,-0.056895,-0.309924,-0.011703,-0.505002,-0.159983,-0.252534,-0.142584,-0.606239,0.35742,-0.551009,-0.107881],[-0.139933,-0.069197,0.10416,-0.311805,-0.206546,-0.150955,-0.350062,-0.167457,-0.036334,0.290051,-0.158927,0.080148,-0.058236,-0.55141,-0.1842,-0.027362,0.093022,-0.564587,-0.057294,0.245347,0.251813,-0.523222,-0.091406,0.318508,0.280276,0.149985,0.076671,0.051498,-0.035265,0.021095,0.043925,0.093379,0.000703,0.341507,-0.037274,0.14477,0.161138,0.027005,0.076393,-0.000348,0.135117,-0.029299,0.105722,0.046054],[-0.060842,0.212494,-0.250219,-0.415812,0.184032,0.197134,-0.12832,-0.067758,-0.006008,-0.028757,-0.266407,-0.159893,0.068642,-0.005568,0.027804,-0.170839,-0.144563,0.154737,0.458636,0.143688,0.111758,-0.196495,-0.405081,-0.026388,-0.104053,0.085458,0.143866,0.146399,-0.275436,-0.05201,0.034899,0.004664,0.089552,0.130615,-0.020029,0.130645,0.070725,-0.306531,-0.077671,0.095651,0.001587,0.123268,0.044869,-0.067108],[-0.097159,-0.03705,-0.28502,0.295556,0.155223,-0.254923,-0.023402,0.148482,0.3411,0.017439,0.242637,0.337094,0.113326,0.045182,-0.026554,-0.331733,0.076841,0.149879,0.023954,0.220625,-0.021728,0.003949,0.419225,0.343677,0.038168,-0.182326,0.010543,-0.27653,-0.191787,-0.117927,0.079011,-0.310975,-0.209279,-0.050434,-0.207236,0.130584,-0.155478,-0.073956,-0.033241,-0.047613,-0.408106,-0.24806,-0.296679,-0.0078],[-0.062398,0.021767,0.185751,-0.210345,-0.058226,0.141821,-0.12511,-0.093001,-0.633045,0.108199,-0.122501,-0.072713,-0.031498,-0.260746,0.186728,0.305028,0.110846,0.007875,0.283719,0.265113,0.323141,-0.434936,-0.766661,-0.190859,0.411929,0.12954,0.1836,0.036102,0.038917,-0.009588,0.193197,-0.013761,0.182369,0.392806,0.213675,0.095006,-0.111124,0.088058,-0.118068,0.337273,-0.069296,0.233833,0.066686,-0.098162],[0.160565,-0.005088,0.206043,0.372214,0.075299,0.28116,0.111546,0.139001,-0.189798,0.083499,-0.040212,-0.111209,0.221788,-0.017809,0.129643,0.44882,0.297135,0.326736,0.256518,0.024293,0.123437,0.024578,-0.151826,0.020911,-0.211076,-0.118141,-0.357466,-0.486545,-0.2422,-0.114039,0.072226,-0.091562,-0.034761,-0.278463,-0.170224,-0.397922,-0.377696,-0.284221,-0.152993,-0.041166,-0.105495,0.166051,-0.594874,-0.078324],[0.085037,-0.020829,0.056782,0.588633,-0.3157,-0.187099,-0.123158,0.374656,-0.438404,-0.065435,0.249668,-0.230331,0.341939,-0.172067,-0.01332,0.247021,0.212375,0.183271,-0.120027,-0.195368,-0.142478,0.151445,0.246676,0.036417,-0.277313,0.053633,-0.117005,-0.156672,-0.077923,-0.053721,0.256958,-0.325823,0.045237,-0.332617,0.108632,-0.20924,-0.133312,0.001895,0.011418,0.201659,-0.504133,0.102697,-0.176239,0.101575],[0.013555,-0.076229,0.084541,0.145039,0.030818,-0.264232,0.1183,-0.241225,0.409177,0.043025,-0.13493,0.557581,-0.004693,-0.104997,-0.123283,0.021154,0.137586,0.181593,-0.209928,-0.267801,0.061748,-0.23984,0.60355,0.66519,0.046636,0.055153,-0.08437,-0.042465,-0.047437,0.285206,-0.126421,0.275907,-0.757286,0.01097,0.103576,0.009337,-0.046279,-0.068984,0.266294,-0.065764,0.272845,-0.855844,-0.391984,0.068123],[0.063555,0.120316,-0.065905,-0.216767,0.484487,0.088638,0.329966,-0.27713,0.37538,0.245994,-0.132803,0.005623,0.11111,0.321096,-0.113962,-0.027854,-0.077419,-0.016048,0.355518,0.347014,0.280327,-0.015559,-0.409675,-0.122715,0.039842,-0.403089,0.107877,0.026835,-0.19318,-0.43071,-0.443218,0.073097,-0.129358,0.072561,-0.30723,0.198458,0.023478,-0.156038,-0.566983,-0.288842,-0.08863,-0.071995,-0.192147,-0.050153],[-0.035635,0.099617,-0.071765,-0.076032,0.336337,-0.191393,-0.162045,0.152004,0.499856,-0.057235,0.126642,0.311198,-0.076543,0.335089,0.047487,-0.111148,-0.191237,-0.058456,0.051795,0.237964,-0.142171,-0.354721,-0.040268,0.18953,-0.129459,-0.440583,0.107543,-0.12204,-0.052633,-0.451963,0.037949,-0.022276,-0.43433,0.052051,-0.556117,0.116298,-0.198183,-0.008082,-0.306455,0.001666,-0.158186,-0.320697,-0.199634,-0.272792],[0.206755,-0.075183,0.204612,0.243091,-0.469771,0.236464,-0.415256,-0.229694,-0.380275,-0.245328,-0.089944,-0.105889,0.351778,0.279507,0.16929,0.25587,0.080942,0.251093,0.133569,0.085758,-0.125693,-0.483434,-0.323236,-0.324752,-0.22735,0.232039,-0.046997,-0.155788,-0.070423,-0.021016,0.021797,-0.067426,0.083536,-0.078288,-0.03398,-0.005423,-0.044437,0.021506,0.096332,0.124902,0.067962,-0.064545,-0.08547,0.025282],[0.044366,-0.391434,0.072892,-0.230936,-0.621934,0.000896,0.008288,0.187855,0.190118,0.162674,0.09142,0.056987,0.054864,-0.577944,-0.630522,-0.043086,0.124205,0.193935,0.182831,0.109697,0.148862,0.032578,0.123017,0.145288,-0.039569,-0.125637,0.016861,0.049094,-0.013532,-0.112539,0.03384,-0.049956,-0.148508,-0.047338,-0.1409,-0.077939,-0.054282,-0.058151,-0.071941,0.07472,-0.059708,-0.093707,0.014321,0.11008],[0.046528,0.121542,-0.118496,-0.155778,0.211967,-0.448955,-0.019984,0.453776,-0.700231,-0.033625,0.258117,-0.024947,0.107921,0.267907,-0.030873,0.187976,-0.151533,0.218707,-0.316934,-0.414198,0.116409,0.247706,-0.388721,-0.071691,0.119591,-0.027697,0.065355,0.168242,-0.074355,0.013714,0.023004,-0.361208,0.360198,0.16806,-0.107716,0.048128,0.109227,-0.12591,-0.057289,0.128599,-0.207598,0.076749,-0.009742,0.124163],[-0.063481,-0.134582,-0.084896,0.08809,0.143843,0.072631,0.06734,0.182135,0.452996,0.026074,0.090894,0.361616,-0.133629,0.002592,-0.168646,0.158488,-0.056988,0.127915,0.091299,-0.045742,0.159425,0.110355,0.385237,0.306734,0.012238,0.16396,-0.145676,-0.086684,-0.240719,-0.045006,-0.136538,-0.085776,-0.609286,0.030056,0.123197,-0.066894,-0.110707,-0.30505,-0.151174,-0.061711,-0.268614,-0.626294,-0.384304,0.006559],[0.102607,-0.219997,0.081034,-0.200051,0.46966,0.106777,-0.066059,0.380506,0.01491,0.112002,0.143171,0.007932,0.11634,0.025176,0.011052,0.330475,-0.015386,0.383234,0.314834,0.330171,0.049367,-0.030307,-0.048753,-0.033254,-0.058566,-0.03115,-0.31458,-0.084406,-0.523095,-0.269693,-0.292308,-0.127523,0.013857,-0.174311,-0.06223,-0.224167,-0.260001,-0.422477,-0.230197,-0.187572,-0.124944,0.06912,-0.349058,-0.012458],[-0.131563,-0.206685,-0.247056,0.334966,0.259701,-0.385687,0.10709,0.019682,-0.261668,0.152995,-0.077557,0.051184,0.153325,-0.016151,-0.223844,0.023511,0.130664,-0.047388,-0.282397,-0.282538,0.177762,-0.031235,-0.133655,0.209795,0.052201,0.076877,-0.002555,-0.280798,0.012252,0.176205,-0.32459,-0.047582,-0.080502,-0.103629,-0.151217,0.214169,-0.251676,-0.050151,0.025095,-0.373424,-0.061941,-0.137023,-0.113528,0.067748],[-0.137726,0.157141,0.094583,-0.698087,0.334739,0.216738,-0.486638,0.248355,0.002823,0.012446,0.066912,-0.100257,-0.378735,-0.415717,0.305555,0.127481,-0.049599,-0.251738,0.259296,0.026566,-0.074872,-0.096414,0.01368,-0.00778,0.174589,-0.176575,0.058877,0.139941,0.037795,0.083442,-0.006657,0.206508,0.025888,0.014667,-0.170937,0.076753,0.145366,0.013854,0.170442,0.053003,0.156593,0.07351,0.195099,0.164937],[0.100542,-0.017404,-0.013366,0.14746,0.143923,0.322521,0.045196,0.127107,0.309026,0.065501,0.041994,-0.04332,0.12121,0.299031,0.120853,0.142099,0.061741,0.054523,0.217963,0.335098,0.070882,0.189255,-0.103888,0.12128,-0.189916,-0.209074,0.03845,-0.079872,-0.090361,-0.242211,-0.128964,0.013638,0.074466,-0.151142,-0.348426,-0.080738,-0.089778,-0.053659,-0.277326,-0.156442,0.02402,0.036166,-0.557991,0.091332],[0.076294,-0.301373,0.157546,0.128114,-0.002568,-0.230092,-0.081075,-0.128083,-0.34306,-0.028636,-0.055182,0.056991,0.002488,-0.266483,-0.247781,0.289416,0.096108,-0.00921,-0.134122,-0.207804,0.275156,-0.165296,-0.819252,0.040967,0.189908,0.148129,-0.055397,0.114232,-0.061505,0.173224,0.094858,-0.04539,0.028267,-0.011972,0.23352,-0.068768,0.125471,-0.221031,0.075712,-0.002543,-0.007291,-0.056601,0.316741,-0.003294],[0.153525,0.118971,0.252491,-0.184973,-0.163798,-0.002143,-0.442344,-0.514266,0.123835,-0.201653,-0.305899,0.079902,0.156295,-0.188327,-0.26302,0.143104,0.107182,-0.427357,-0.238592,0.244279,-0.207258,-0.43168,-0.260092,0.119029,-0.01385,-0.224522,-0.085586,0.143525,0.066128,-0.030709,0.235515,0.177754,-0.042785,0.026561,-0.193671,-0.196007,0.156918,0.066506,-0.055301,0.180486,0.11543,-0.081233,0.495382,0.024092],[0.00755,0.099125,0.267961,-0.311565,-0.575161,0.023438,0.1154,0.120898,0.130764,0.070225,-0.01537,-0.011022,-0.086109,-0.31536,-0.021192,-0.4616,0.171605,-0.015305,0.15083,-0.158816,-0.317068,0.300929,0.375018,-0.474894,0.141561,0.371144,-0.042797,-0.008787,0.330517,0.001254,0.084382,-0.047764,-0.018792,0.130522,0.296684,-0.056557,0.086439,0.260699,-0.061796,-0.037551,-0.054494,-0.129066,-0.007127,0.060729],[-0.159325,0.119434,0.1994,-0.261215,0.158089,-0.017193,0.269122,0.010528,-0.306013,-0.018921,-0.105324,-0.103155,-0.251948,-0.610489,0.289779,0.205141,0.133651,-0.002306,-0.00629,-0.239414,-0.073076,0.043648,-0.067034,-0.119647,0.061059,-0.202888,-0.177666,-0.383512,0.177681,0.290527,-0.043462,0.052755,0.070496,-0.172702,-0.117063,-0.068145,-0.173436,0.152432,0.273948,-0.014322,-0.050386,0.101914,0.34076,-0.158753],[0.087573,0.116253,-0.179682,-0.214941,-0.331582,-0.58675,-0.093062,-0.140584,-0.507016,0.019466,0.079782,0.115182,0.245688,-0.115394,-0.121923,0.001918,0.204863,-0.21596,-0.532381,-0.102395,0.324862,0.054833,0.065309,0.312389,0.206154,0.152776,0.243476,0.037112,0.315253,0.19689,-0.027304,-0.053059,0.123809,0.277451,0.104051,0.228765,0.061422,0.343999,0.061183,0.077542,-0.023148,0.050672,0.059967,0.139673],[0.000232,-0.110616,0.048032,-0.183243,0.103253,0.013564,-0.256629,0.392141,0.104709,0.020229,0.24146,-0.031461,0.122213,0.171697,-0.185882,0.296503,-0.067719,0.147274,0.029912,0.309944,0.196462,0.196144,-0.006717,0.174085,0.045444,-0.340438,-0.272846,-0.014089,-0.079013,-0.241619,-0.074716,-0.256369,-0.080114,-0.099775,-0.2097,-0.20023,-0.215059,-0.163337,-0.1757,-0.249116,-0.242532,-0.037664,-0.508407,-0.064261],[0.222891,-0.232073,-0.064006,0.272342,-0.655945,0.060532,0.219166,-0.26023,0.091834,0.165829,0.1351,-0.110222,0.259378,-0.353904,-0.48963,-0.088099,0.084438,-0.181127,0.01717,0.109489,0.157469,-0.056554,-0.117513,-0.140491,-0.070079,0.04149,0.092116,-0.026291,0.220996,-0.063238,-0.162755,0.018664,0.111889,-0.032576,0.13665,0.146035,0.094724,0.146343,-0.155359,-0.070158,0.137021,0.032674,0.261048,-0.007001],[0.306057,0.087652,0.020221,0.136365,0.204446,-0.023503,0.050783,-0.016366,-0.17761,0.33438,-0.065085,0.09111,0.444168,0.507158,0.197672,0.073109,-0.04877,-0.2257,-0.11688,-0.054561,0.290657,0.175383,-0.083963,0.007261,-0.474476,-0.30177,-0.091491,0.155309,-0.217465,0.048,-0.320308,0.039559,0.011077,-0.479119,-0.215665,-0.183632,0.091919,-0.141089,-0.013007,-0.339349,-0.123601,-0.032529,-0.391636,-0.20108],[-0.231581,-0.121503,-0.127892,-0.275637,-0.066611,0.336851,0.139699,0.379849,-0.303427,0.196411,0.13307,-0.296699,-0.083758,-0.204741,-0.305086,-0.33217,-0.201909,0.082034,0.348488,0.340245,0.166443,0.350948,-0.317841,-0.088546,0.161017,-0.058976,0.050212,0.041092,-0.142869,-0.293716,-0.028215,-0.10732,0.122491,0.109945,0.107204,0.173158,0.151148,-0.074113,-0.281975,-0.16855,-0.032408,0.121429,0.050806,-0.003833],[-0.21362,0.153527,0.092335,-0.306871,0.100838,0.107459,0.042739,-0.014713,0.474785,0.00266,0.060979,0.243602,-0.234244,0.086362,0.04792,0.274989,0.120563,0.295032,0.048116,0.149873,0.080258,0.143686,-0.115308,0.336398,0.119119,-0.66008,-0.207753,-0.203149,-0.199052,-0.084883,-0.022141,-0.107378,-0.21302,0.058639,-0.552726,-0.156743,-0.111036,-0.061294,-0.270308,0.16699,-0.063599,-0.20498,-0.426686,-0.015253],[-0.001204,0.11871,0.056621,0.065579,0.222821,0.021051,0.286113,0.028835,0.048039,0.13667,-0.116749,0.226882,0.091744,0.244889,0.507654,0.20865,-0.082098,0.244721,0.1504,-0.293025,0.025543,-0.166246,0.072546,0.204232,-0.149284,-0.400649,-0.261309,-0.355932,-0.40767,0.189581,-0.193412,0.141957,-0.284206,-0.170135,-0.404255,-0.304116,-0.347298,-0.330193,0.1798,-0.146353,-0.00057,-0.104595,-0.43735,-0.001366],[0.250803,-0.081485,-0.178227,0.24971,0.115029,-0.074621,0.015544,0.369489,-0.196367,-0.008114,0.321339,-0.067185,0.371335,0.351566,-0.00604,-0.123493,0.149665,0.186198,0.081775,0.291942,0.097495,0.18793,0.178767,-0.240074,-0.492953,-0.239329,0.041883,-0.326284,-0.173175,-0.258973,-0.144352,-0.427416,0.189813,-0.5297,-0.097173,0.04285,-0.301096,-0.013355,-0.162793,-0.108553,-0.470078,0.275696,-0.319681,0.063211],[0.03766,-0.001882,-0.022956,-0.063929,0.302558,0.300383,-0.442487,0.093488,0.168,0.182341,-0.004982,-0.273628,0.234094,0.032862,-0.204794,-0.328828,-0.483336,-0.54125,-0.007616,0.047927,0.012014,0.219844,-0.157913,0.025568,-0.19781,-0.007857,-0.014369,0.422201,0.089234,0.125969,-0.136506,0.078926,0.064027,0.035948,0.056882,0.017052,0.424204,0.106771,0.048352,-0.056062,-0.031819,0.044664,0.036391,0.12084],[0.015789,-0.273203,-0.269935,0.066972,-0.128236,0.17422,-0.036821,0.53823,-0.115242,-0.121787,0.067978,-0.19279,0.090021,0.328998,0.094952,-0.1433,-0.279478,-0.143242,0.200164,-0.036799,-0.096195,0.468287,0.32981,-0.097672,-0.067727,0.153396,0.123489,0.405804,0.680219,-0.020652,0.183158,-0.107681,-0.031449,-0.069853,0.265591,0.172311,0.412424,0.609189,-0.090443,0.109006,0.028455,0.111758,-0.089626,0.027991],[-0.206897,0.125594,0.044139,-0.291844,-0.057342,0.164348,0.050453,-0.349843,-0.027185,0.243552,-0.204886,0.311862,-0.332802,-0.384505,-0.073185,-0.075532,0.244961,-0.35368,-0.159439,0.114207,0.202177,0.168713,-0.217924,0.311698,0.235397,-0.088373,-0.077339,-0.139316,0.173981,-0.067095,-0.132736,-0.007681,-0.172454,0.27557,-0.005586,-0.009063,0.120777,0.190923,-0.072071,-0.194324,-0.010791,-0.047268,0.148201,-0.125481],[0.006304,0.071725,-0.169045,-0.117405,0.516897,0.287268,0.353641,-0.138217,0.172761,0.02072,0.098029,0.06058,0.027163,-0.217201,0.026841,-0.030125,-0.060212,0.134121,0.046246,0.326058,-0.173865,0.081833,-0.156673,0.144528,0.008519,-0.414961,-0.110711,-0.304673,-0.341749,-0.441848,0.041403,0.020359,-0.166975,-0.100973,-0.42102,-0.201141,-0.459382,-0.363115,-0.493899,-0.057338,-0.448575,-0.033986,-0.505874,-0.0269],[0.223927,0.200385,0.044912,-0.139348,-0.553884,0.20903,-0.046038,-0.667245,0.013779,0.155245,-0.242055,-0.033093,0.168649,0.262951,0.11411,0.091212,-0.147097,-0.487407,-0.222175,0.047875,0.055607,-0.1262,-0.105464,-0.128044,0.032611,0.163852,0.052703,0.209704,-0.004993,0.012581,0.126594,0.238675,0.153907,-0.043027,-0.006587,0.027885,0.117205,-0.134869,0.013491,0.090215,0.267414,0.110124,0.352022,-0.05119],[0.129001,0.049284,0.05331,0.237288,-0.010737,-0.185158,-0.323211,-0.346464,-0.358951,-0.077522,0.061465,0.195306,0.209996,0.090198,-0.498249,0.070423,0.295473,0.309943,-0.452477,-0.099505,-0.145865,-0.683951,-0.482183,0.22985,0.057663,0.012155,0.091012,-0.222305,-0.016095,-0.029465,0.1017,-0.000899,0.280631,-0.035973,0.020348,0.094967,-0.056284,-0.072129,0.050439,0.082864,0.071582,0.105419,-0.027582,-0.048867],[0.201646,0.039241,-0.215039,-0.490495,-0.668643,-0.402638,-0.070759,-0.171784,-0.073062,0.313517,0.060741,0.137442,0.094749,-0.42368,-0.479172,-0.398059,-0.043751,-0.278065,-0.209287,-0.032572,0.130603,0.212955,0.078724,0.092282,0.174327,0.424302,0.18374,-0.026113,0.294258,-0.022293,-0.241145,-0.062121,-0.097946,0.126968,0.323474,0.132618,0.059762,0.210152,-0.072132,-0.197883,-0.039485,-0.117613,0.517094,-0.033125],[-0.088612,-0.09645,-0.199953,-0.292741,0.077891,-0.089768,-0.01464,0.174493,-0.394071,-0.13746,0.23336,-0.054871,0.095975,-0.441053,0.118369,-0.509982,0.15445,0.246307,-0.244905,0.205461,0.068398,0.039257,-0.223192,-0.063678,0.131736,-0.258593,0.240438,-0.173527,0.276964,-0.107423,0.021269,-0.105221,0.166394,0.055042,-0.170988,0.160817,-0.196168,0.135298,0.189452,-0.069915,-0.046357,0.197971,0.030131,-0.059157],[-0.200998,-0.166115,-0.044748,-0.211434,-0.407638,-0.106692,0.144615,-0.335635,-0.069394,0.088537,0.226682,0.124175,-0.275812,-0.223138,-0.236946,-0.091901,0.0733,-0.139477,-0.103282,-0.012529,0.022381,-0.107546,-0.095515,-0.123476,-0.337579,-0.14766,-0.201903,-0.195925,0.164625,-0.038454,-0.187387,-0.07862,-0.305609,-0.087032,0.030268,-0.066864,0.025793,-0.172077,0.000723,-0.167238,-0.074823,0.028412,0.538321,-0.063899],[0.013335,0.072157,0.240415,-0.371264,0.234271,0.171055,-0.384219,0.191435,0.089711,-0.135093,0.075755,0.176535,-0.156395,-0.330886,0.202376,0.063599,-0.513691,-0.555524,0.211573,0.022224,-0.364293,-0.38412,0.076192,-0.04006,0.209996,-0.284329,-0.228966,0.203048,-0.170712,-0.108705,0.19324,-0.136449,-0.065456,0.160533,-0.144978,-0.149189,0.243648,-0.153661,-0.143844,0.178878,-0.17727,-0.087821,0.479946,-0.011254],[0.149054,0.090365,0.108212,0.31126,-0.058281,0.18945,-0.302263,0.241284,0.103115,-0.082886,0.208869,0.054743,0.009469,-0.011846,0.110617,0.117849,0.150755,0.379398,0.065014,0.296458,0.096544,0.160855,0.064936,0.030752,-0.101887,-0.184255,-0.237521,-0.07174,-0.219846,-0.259726,-0.081412,-0.363189,-0.161764,-0.394776,-0.328297,-0.104153,-0.216721,0.028912,-0.167292,-0.270241,-0.26367,-0.201277,-0.520832,-0.143014],[-0.161887,0.103297,-0.304019,-0.073961,-0.178346,-0.5756,0.046252,-0.074453,0.105983,0.04554,-0.007169,0.002505,-0.178357,0.331169,-0.159729,-0.070613,0.176858,0.257549,-0.490401,0.181481,-0.173606,0.117915,-0.16608,-0.007981,-0.044269,-0.247254,-0.160921,0.040013,-0.295722,-0.003723,0.049314,0.039071,-0.015799,0.132774,0.071102,0.03156,-0.230816,-0.150054,-0.293152,0.038137,0.137105,-0.007651,0.174676,-0.172458],[-0.073953,-0.11654,-0.120215,0.210312,-0.00219,0.005619,0.003176,0.183329,0.175499,0.017916,0.186216,0.114168,0.223607,0.173829,-0.204237,0.28858,0.004631,0.218485,-0.006703,0.341349,0.277145,0.259173,-0.134457,0.333468,-0.307304,-0.123536,-0.046095,-0.219068,-0.252823,-0.082015,-0.384204,-0.243407,-0.155931,-0.090324,-0.044209,-0.006892,-0.123956,-0.003075,-0.207904,-0.380696,-0.187845,-0.071053,-0.591921,-0.058393],[-0.16159,0.065959,-0.237332,-0.204363,0.547497,-0.229756,0.312523,0.161997,0.15552,0.050517,-0.176328,0.144267,-0.187505,0.181995,0.302346,-0.046286,0.166365,0.517583,0.265663,0.044379,-0.019743,-0.257298,-0.107276,0.145336,0.335117,-0.584017,0.203997,-0.512794,-0.237564,-0.031604,-0.035441,0.11456,-0.08097,0.328063,-0.52667,0.163241,-0.364188,-0.347535,-0.031268,-0.081667,0.021125,-0.105581,-0.164331,-0.205231],[-0.01842,0.061454,0.277404,-0.216964,-0.363807,-0.018573,-0.189579,-0.495863,0.311709,-0.064957,-0.269719,0.137752,-0.19601,-0.399954,-0.077167,-0.126008,-0.027431,-0.037571,0.322643,-0.010142,-0.02295,-0.183951,-0.247642,-0.120634,0.030318,0.133197,0.057882,0.01706,-0.018901,-0.157488,-0.027192,-0.007514,0.190736,0.178862,0.213613,-0.07522,0.086056,0.297021,-0.250341,-0.073884,-0.074243,0.20209,0.364387,-0.052325],[0.309846,0.056665,0.250802,0.049198,0.204965,-0.212463,-0.120927,-0.067421,-0.143536,-0.034976,-0.011867,-0.16317,0.227562,0.14896,-0.202521,0.160867,-0.09696,-0.01307,-0.597972,-0.156927,-0.398821,-0.060141,-0.512066,-0.206771,-0.197977,-0.134807,-0.070509,-0.088432,-0.165966,0.030944,0.049503,0.051565,0.081718,-0.074093,-0.120012,-0.145086,-0.035278,0.01478,0.177082,0.01975,-0.044885,0.186087,0.474359,0.02156],[0.016631,0.033577,0.007028,-0.133108,0.322544,-0.545164,-0.547464,0.029397,-0.473332,0.007211,0.163636,0.165403,0.02228,0.108692,-0.023204,-0.578989,-0.086774,0.015068,0.047749,-0.419442,0.140289,-0.127866,-0.163385,-0.229304,0.121576,-0.261278,-0.035093,-0.129654,0.082247,-0.099087,-0.114938,0.017351,0.276303,-0.214135,-0.23703,0.087508,0.125266,-0.412503,-0.081473,0.080614,0.112017,0.073071,0.193081,0.188603],[-0.041029,0.022705,0.123879,0.131108,0.52985,0.131346,-0.070667,-0.048971,0.247955,-0.186231,0.085911,0.086245,0.170361,-0.177964,-0.023554,0.109499,-0.016251,0.004872,-0.333914,0.1493,-0.396915,-0.336336,0.103168,-0.016884,-0.118954,-0.546311,-0.344595,-0.118397,-0.123998,-0.194105,0.203746,-0.118531,-0.241754,-0.216748,-0.561917,-0.360735,-0.179849,-0.214108,-0.207161,0.164723,-0.106765,0.036763,-0.315228,-0.087311],[0.065508,-0.03172,-0.239938,0.153447,0.334998,-0.587687,-0.058919,0.055567,-0.100219,0.096064,0.043062,0.095395,0.08267,0.176981,-1.031922,-0.477408,0.103229,0.107385,0.112846,0.089876,-0.017515,0.01321,0.057923,0.175036,0.12154,-0.333077,-0.053309,-0.012932,0.170604,-0.169649,0.050852,-0.057769,-0.095955,0.204413,-0.131882,0.088908,0.008915,0.247537,-0.068284,-0.003132,-0.050563,-0.139032,0.00101,0.0395],[0.145891,-0.043445,-0.018734,0.090674,-0.10312,0.048048,0.212674,0.32761,-0.031323,0.238184,0.310993,-0.011786,0.178712,0.041832,0.178291,0.082171,-0.159025,-0.106647,0.154451,-0.018395,0.266012,0.424991,0.22481,0.031276,-0.193647,0.011871,-0.082689,0.132709,-0.172134,-0.04998,-0.218387,-0.427962,-0.165589,-0.232094,0.044177,-0.124614,0.109937,-0.15385,-0.07873,-0.296269,-0.439638,-0.373499,-0.359453,0.050706],[0.116139,0.074223,-0.055065,-0.251071,0.301513,-0.107728,-0.199378,0.20589,0.038761,-0.111581,0.091553,0.141945,0.247308,0.387154,0.289038,0.1774,-0.012336,0.223833,0.208988,-0.260289,-0.095903,0.119739,0.215827,0.231189,-0.282231,-0.220413,-0.162756,-0.060893,-0.289573,-0.021533,0.000585,-0.12465,-0.329354,-0.166496,-0.310923,-0.236662,-0.024486,-0.375966,-0.061315,-0.135828,0.077935,-0.306513,-0.530334,-0.204605],[0.293912,0.115211,0.030934,0.183239,-0.069957,0.01877,-0.066971,-0.100402,-0.021184,0.099464,-0.057552,-0.309453,0.193093,0.458812,0.170638,-0.104795,-9e-05,-0.216451,0.099765,0.261227,0.165223,-0.071509,-0.201667,-0.348281,-0.239228,-0.438928,-0.063073,-0.030839,-0.027261,-0.190944,-0.127001,-0.016162,0.114631,-0.304379,-0.240351,-0.078208,-0.035872,0.126546,-0.083514,-0.192149,-0.084109,0.13703,-0.205662,-0.114958],[-0.344201,0.22478,-0.009189,-0.092168,0.18133,-0.24548,-0.160637,0.165005,0.098103,-0.1711,0.12515,-0.150988,-0.507349,-0.250442,-0.007217,-0.173633,0.135612,-0.003878,0.017088,0.158488,-0.301899,-0.07655,-0.024715,-0.192187,0.034249,-0.219152,0.109052,-0.166286,-0.15424,-0.12006,-0.125521,-0.13133,0.02152,-0.07306,-0.146738,0.294681,0.061766,0.171822,-0.164593,-0.037536,-0.189656,0.072308,0.189511,-0.15289],[-0.118169,-0.204861,-0.049413,0.071504,0.046986,-0.010665,0.138952,0.327421,0.015219,0.120466,0.246019,0.039536,0.053312,-0.011657,-0.167155,-0.331787,0.047592,0.14848,0.192157,-0.220026,0.129779,0.304295,0.114791,-0.033142,-0.002944,-0.068798,-0.297818,-0.105411,-0.000152,-0.002012,-0.11928,-0.148172,-0.009261,-0.087645,0.111752,-0.022507,-0.066721,-0.028911,-0.03812,-0.195299,-0.125053,0.041636,-0.33926,0.024891],[0.051989,-0.166515,-0.061585,0.02956,0.045232,0.211319,-0.164461,0.281001,0.582529,-0.124103,0.185976,0.27531,0.154463,0.143858,-0.241465,-0.085591,-0.084312,0.073116,0.072816,0.153066,0.010344,0.192684,0.383511,0.283158,-0.003612,0.104516,-0.004062,-0.007564,0.033492,-0.275194,0.144689,-0.334326,-0.298454,-0.102697,0.067829,0.032392,-0.001948,-0.049377,-0.280325,0.104101,-0.308794,-0.316085,-0.374261,0.012941],[0.109841,-0.112855,-0.137915,0.048255,-0.426835,-0.596317,-0.048809,-0.018951,-0.416515,0.118301,0.166098,0.050674,0.262074,-0.367284,-0.117478,0.099623,-0.067331,-0.324348,-0.471382,0.02845,0.269043,-0.25559,-0.153111,0.190118,-0.111328,-0.095869,0.192258,0.130115,0.109348,0.242562,0.205557,0.027621,0.207018,-0.135577,0.099379,0.279735,0.153127,0.166706,0.38835,0.234459,0.067285,0.117639,0.272969,-0.023833],[0.12482,0.157863,-0.079755,0.138733,-0.005208,0.014879,-0.013909,0.249637,-0.063737,-0.126539,0.012018,0.055947,0.140336,0.320255,0.199994,-0.147425,-0.122371,0.060919,0.247407,-0.216177,-0.317192,-0.310101,-0.444526,0.154108,-0.499451,-0.238864,0.193728,-0.061876,-0.060341,-0.125553,-0.086215,-0.254207,-0.230767,-0.260391,-0.292246,0.469703,0.187864,-0.175325,0.118425,-0.133418,-0.206809,-0.201462,-0.215323,-0.080143],[-0.025391,0.054139,-0.110712,0.436052,0.154258,-0.115696,0.498171,0.096093,0.042809,0.021599,-0.052603,0.108441,-0.170471,0.056674,0.081148,-0.339529,0.190922,0.226035,0.097576,0.271058,0.099506,-0.048259,-0.069808,0.087836,-0.235771,-0.4522,0.060878,-0.92125,-0.31971,-0.182631,-0.195242,-0.074641,0.070431,-0.079548,-0.448818,-0.041847,-0.76641,-0.167345,-0.314904,-0.252202,-0.204207,0.127474,-0.322881,-0.097954],[-0.067745,-0.040552,0.160348,-0.260732,0.246563,-0.002053,0.104281,-0.205913,0.066974,0.10848,0.146685,0.069149,-0.062524,0.274635,0.06355,0.172852,0.042248,-0.053661,-0.118711,0.114312,-0.043587,0.462389,0.159993,0.063617,-0.057497,-0.397818,-0.174128,-0.229873,-0.004424,0.074105,-0.122684,-0.193804,-0.021805,-0.079346,-0.421062,-0.276655,-0.047716,-0.018788,-0.090507,0.189884,-0.01846,-0.031615,-0.351258,0.017007],[-0.130389,-0.070306,-0.039923,0.217951,0.124209,0.191325,-0.328709,0.331341,0.227059,-0.067248,0.18249,0.063464,0.058325,0.153619,0.026654,0.257357,0.143794,0.408245,0.17043,0.198092,0.103303,0.054323,-0.069018,0.147332,-0.204452,-0.229943,-0.139711,-0.519772,-0.202716,-0.084082,-0.11279,-0.227893,0.011232,-0.032678,-0.150313,-0.146576,-0.143205,-0.123188,-0.166532,-0.071302,-0.028148,-0.009675,-0.537258,-0.162876],[-0.092342,-0.113853,0.207891,-0.265234,0.308684,0.076421,-0.1941,0.332234,-0.057642,0.02478,0.261565,0.083577,0.120985,0.011351,0.377461,0.263296,0.077559,0.238011,-0.10816,-0.052975,-0.347763,-0.207016,0.411219,0.141845,-0.336964,-0.07165,-0.394526,-0.041939,-0.286555,0.165732,-0.033383,-0.297662,-0.048019,-0.130634,-0.037501,-0.363683,-0.084254,-0.313698,0.084924,0.096996,-0.161257,-0.11038,-0.388483,-0.127452],[-0.102113,-0.09356,0.007915,0.009499,0.512802,-0.242162,0.029902,0.592077,-0.077393,-0.09143,-0.080659,-0.066599,0.022535,0.142429,0.102542,-0.06427,-0.18646,0.52793,0.544431,-0.31488,-0.018067,-0.056842,0.084065,-0.003542,-0.206608,0.259961,0.018705,0.240196,-0.545492,0.305041,0.101785,0.15307,-0.164158,-0.206112,0.259101,0.068978,0.214406,-0.66973,0.286174,0.057927,0.173219,-0.05092,-0.223415,-0.075405],[0.05196,-0.092575,0.201091,0.106031,0.264573,-0.17602,0.251733,0.153667,0.039685,0.055107,0.215482,-0.072887,-0.36343,-0.220303,-0.449253,0.035241,-0.290752,-0.15057,-0.397498,-0.106483,-0.382893,0.042711,-0.146634,-0.116009,-0.217721,-0.187311,-0.102157,-0.037957,0.100793,0.124715,0.118991,-0.020278,-0.026429,0.339348,0.025864,0.406529,0.261163,0.345044,0.186651,-0.128345,-0.198904,0.070934,0.165761,-0.261565],[0.087281,0.165766,0.075629,0.221026,0.05436,-0.088313,-0.13111,0.1494,0.053034,-0.086708,0.228771,0.047093,0.067256,0.217868,0.273694,0.144382,0.140685,0.23767,0.029045,-0.013194,-0.147085,-0.011087,0.197874,0.073356,-0.255191,-0.566795,-0.097644,-0.189084,-0.182203,-0.032436,0.053878,-0.127839,-0.12953,-0.384172,-0.223111,-0.167434,-0.281359,-0.156481,-0.013211,0.033504,-0.081892,-0.114946,-0.414761,0.051407],[0.122255,0.073209,-0.115876,0.150361,0.235894,-0.054801,0.282317,0.048088,-0.377781,0.28102,-0.231801,0.035785,0.246322,0.122322,0.397032,-0.112403,0.06478,0.109107,0.08027,-0.072225,0.366921,-0.094631,-0.463745,-0.047387,-0.100337,-0.426376,0.104377,-0.22298,-0.307712,-0.013077,-0.407398,-0.067666,-0.003583,-0.191323,-0.433218,-0.210929,-0.19771,-0.275933,-0.002686,-0.301295,-0.171375,-0.028232,-0.233789,0.18245],[-0.216404,0.1123,0.211249,-0.203509,-0.141338,0.093491,-0.55171,-0.615943,-0.228424,0.230736,-0.09807,0.038626,-0.255749,-0.441922,-0.189518,0.270285,0.182857,-0.417437,-0.190241,-0.058076,0.270757,-0.656702,-0.413751,0.172953,0.203381,0.159764,0.011966,0.057845,0.040217,0.113952,-0.028972,0.104444,0.15382,0.146015,0.141229,0.077897,0.033762,0.022992,0.094774,-0.213373,0.033913,0.122405,0.271925,0.025033],[0.141497,0.088999,-0.031409,0.180783,0.431718,-0.26481,0.326292,0.15714,0.037294,0.033451,0.202024,0.264556,0.094561,0.238918,-0.166054,-0.259126,-0.012611,-0.042152,0.192235,0.337228,0.243524,-0.188961,0.264678,0.185243,-0.126284,-0.700037,-0.290062,-0.269358,-0.082634,-0.28007,0.222453,-0.349714,-0.324299,-0.06901,-0.598882,-0.509948,-0.381172,-0.234838,-0.415369,0.027779,-0.556994,-0.341351,-0.436512,-0.005969],[0.068182,0.00731,-0.113572,0.025409,0.012964,-0.208961,-0.453653,0.177398,0.056635,-0.052697,0.090374,0.191005,-0.103361,-0.162133,-0.51657,-0.430246,-0.078251,-0.318772,-0.309137,0.011761,-0.233585,-0.163298,0.001063,0.326788,-0.132398,-0.075155,-0.009972,-0.136212,-0.017127,-0.044058,-0.047672,-0.132346,-0.029804,-0.001215,0.001443,0.187834,0.257966,-0.03816,0.206269,-0.028325,0.041251,-0.065871,0.386092,-0.026806],[-0.006437,0.119245,0.244648,-0.33983,-0.318325,0.242104,-0.521995,0.34633,0.26138,-0.192719,0.195939,0.068233,-0.086495,-0.094231,-0.084583,0.196435,0.156423,-0.008103,-0.127774,0.025257,-0.538354,-0.522702,0.251772,0.114076,0.164447,0.264434,-0.03396,-0.069803,0.143118,0.133945,0.022931,-0.104762,-0.108589,0.171051,0.204954,0.00311,0.025998,0.059623,0.09179,0.068624,-0.174727,-0.033381,-0.118947,0.195037],[-0.34731,-0.119884,0.16454,-0.410061,-0.401856,-0.547558,-0.16232,-0.008055,-0.170819,0.209542,0.048827,-0.031958,-0.206197,-0.298642,-0.575232,0.15885,0.182996,-0.136976,-0.326704,-0.317097,0.388144,0.071476,-0.209896,0.439277,0.160452,0.047903,-0.237561,-0.164844,0.237891,-0.179291,-0.106164,-0.229778,0.056506,0.120862,0.014422,-0.232372,-0.113797,0.13406,-0.187464,0.043393,-0.139993,-0.07896,0.319305,-0.116226],[0.056103,0.254662,0.087944,-0.24866,-0.03515,-0.457131,-0.419453,-0.272303,-0.320737,-0.02378,-0.226832,0.137269,-0.153074,0.194043,0.244733,-0.027086,0.090799,-0.026976,-0.363597,-0.011685,0.120002,-0.09738,-0.395155,-0.052466,0.069863,-0.105599,-0.122098,0.132131,-0.033538,0.016634,0.040796,0.192212,0.191123,0.123791,-0.094156,-0.121341,0.057243,-0.102633,0.036104,0.111326,0.20523,0.208585,0.331558,0.112269],[-0.019548,0.146122,-0.343801,-0.051961,0.468956,-0.612713,0.299215,0.306911,0.054739,0.132984,0.206866,-0.05738,-0.016684,0.163173,-0.741795,-0.510837,0.019681,0.040523,0.465746,0.064725,0.205654,0.137263,-0.01751,-0.085221,0.196653,-0.70375,-0.343481,-0.077492,0.007627,-0.15936,0.289429,-0.042418,0.216145,0.217766,-0.70427,-0.276032,-0.050112,-0.041053,-0.138658,0.045295,-0.084983,0.158879,-0.224566,-0.02428],[-0.003326,-0.179843,0.155739,-0.08577,-0.123704,-0.193992,-0.453584,-0.162728,-0.256573,0.097472,-0.35875,0.085892,0.278656,-0.042267,-0.024739,0.015387,0.317849,0.232347,0.188745,-0.408071,-0.074121,-0.438437,-0.292265,-0.202002,-0.074533,0.083241,-0.055348,0.011128,-0.102291,-0.021945,-0.066167,0.194048,-0.092736,-0.174443,0.047914,-0.051325,-0.144914,-0.04719,-0.038822,-0.001999,0.218047,-0.071808,0.269285,0.136063],[-0.102071,-0.05516,0.056181,-0.06157,0.231345,0.264897,0.284973,0.21903,0.206028,0.043364,0.032206,0.112225,0.076138,-0.050106,0.144163,0.108384,0.103102,0.21424,0.180825,0.119082,0.184509,0.179776,-0.133266,0.257457,0.141967,-0.207491,-0.245845,-0.251215,-0.19906,-0.166611,-0.215824,-0.14533,-0.110902,0.120855,-0.204194,-0.353929,-0.260924,-0.301973,-0.178505,-0.372967,-0.095726,-0.178875,-0.523335,0.058047]],"net.0.bias":[-0.263442,-0.318777,-0.215127,0.336273,-0.594984,-0.238328,-0.35362,-0.116829,0.145339,-0.586331,0.109646,-0.282061,-0.647849,0.046509,0.15707,-0.522168,-0.339557,-0.33917,-0.15184,0.287669,-0.147258,-0.497545,0.108186,-0.104795,0.060517,0.122531,-0.448145,0.262208,-0.421507,-0.467395,0.115617,0.008854,0.194528,0.390199,0.354623,-0.345306,-0.173853,0.120063,-0.284506,0.20834,-0.392035,0.591402,-0.059553,-0.199974,0.3494,0.58488,0.320393,0.415883,-0.528327,0.045007,-0.085243,-0.22067,0.291697,0.031429,-0.320972,0.365519,0.158983,-0.448842,-0.130839,-0.586313,-0.056877,-0.15351,-0.266767,-0.210312,-0.015894,0.266462,0.066203,-0.307415,-0.57668,0.011579,0.241379,-0.584682,0.23219,0.434488,0.199013,0.251353,-0.017705,-0.52973,0.022621,-0.394762,0.153894,-0.562038,-0.318762,-0.468794,-0.072791,-0.030185,0.136232,-0.429468,0.100993,-0.045379,0.617105,0.245627,0.393193,0.585833,-0.435158,0.113663,-0.556658,-0.192629,0.198784,0.426072,0.279064,-0.271996,0.079735,-0.494614,-0.358639,-0.175772,0.218238,-0.363865,-0.454589,0.35954,-0.154067,-0.337624,-0.534005,-0.581738,-0.256163,-0.230269,0.01784,-0.506096,-0.357671,0.287447,-0.458291,0.229681,-0.033881,0.166581,0.373143,-0.226987,0.170795,-0.63254],"net.2.weight":[[0.342965,0.17516,0.298477,-0.652137,0.027222,-0.121632,-0.101694,0.451969,0.237473,0.422501,-0.127363,-0.071699,0.121431,0.115213,0.138294,-0.021951,0.230563,0.174594,0.157565,-0.147407,-0.087759,0.165725,-0.353593,-0.02569,-0.092902,-0.109808,0.532056,0.042938,0.192934,0.133398,-0.121575,0.119629,-0.353188,-0.219812,-0.11247,0.099812,-0.20647,-0.062915,0.073114,-0.349647,-0.234889,-0.487556,-0.074267,0.284064,0.358019,-0.397372,0.129304,-0.13051,0.099175,-0.120364,-0.276955,-0.137567,-0.117864,-0.228591,0.259002,-0.183502,-0.188537,-0.354942,0.404845,0.332968,0.245281,0.015025,-0.278473,-0.257592,0.424244,0.038174,-0.002907,0.054908,0.14764,-0.224649,0.346258,0.041863,0.153014,0.063185,0.129836,0.424691,0.01756,0.034703,0.003499,0.059712,-0.141003,0.079469,0.339833,-0.121092,-0.070586,-0.091099,0.104178,0.075928,0.258781,-0.172974,-0.909829,-0.193694,-0.211482,0.207713,0.108233,-0.392986,-0.06168,-0.288764,-0.342036,-0.001328,-0.40644,0.283719,-1.05957,0.308299,0.102018,0.065696,-0.366812,0.03733,-0.105571,-0.333117,-0.240532,-0.339261,0.142269,-0.006274,0.289255,0.087372,-0.141114,-0.006305,0.035038,0.185638,-0.36196,-0.502968,0.315481,-0.247343,0.017343,-0.785097,0.098665,0.199236],[-0.143865,0.212319,0.287636,-0.198126,0.107553,0.007541,-0.000701,0.057574,0.003856,0.162598,0.118849,-0.124644,-0.048843,-0.209608,-0.00624,-0.044674,0.112783,0.139513,-0.494958,-0.084916,-0.104426,0.283332,-0.436876,-0.171801,0.032773,-0.146004,0.169618,-0.001866,0.022195,0.230517,0.159558,-0.189197,-0.185061,-0.226419,0.086763,0.235214,-0.1465,-0.01078,0.547429,-0.270612,-0.167883,-0.224871,-0.152043,-0.017774,-0.171883,-0.156465,0.150048,-0.177781,0.137635,0.027406,-0.17145,-0.49833,-0.566654,0.08902,0.157468,-0.306858,0.166689,-0.230541,0.358458,0.33182,0.03559,-0.292089,-0.079539,-0.153688,0.265742,0.23815,-0.016904,-0.12693,0.368432,-0.021394,-0.00078,0.064802,0.102352,-0.283016,-0.196518,0.036384,-0.504564,0.235759,-0.053417,0.0452,-0.043628,-0.016909,0.096158,0.18387,-0.292934,-0.576207,-0.329299,0.053431,-0.245703,-0.171213,-0.857925,-0.388381,-0.161006,0.084658,0.09347,0.118843,-0.031107,-0.133137,-0.440574,0.155776,-0.108441,0.083047,-0.478469,0.060789,-0.06528,-0.024534,-0.018856,-0.059864,-0.24588,-0.299289,-0.066297,0.014205,0.003154,0.12445,0.190858,-0.091784,-0.156792,-0.026333,0.218362,-0.021117,-0.076148,-0.522492,0.007233,-0.192905,-0.012477,-0.423064,0.174341,0.112254],[-0.034971,0.038561,0.113237,-0.346563,0.181244,-0.080182,0.03048,0.281854,0.329736,0.124785,0.354416,0.406974,-0.040647,0.063102,-0.163666,0.109437,-0.013904,0.241959,-0.581796,-0.554937,-0.379589,0.078878,0.063488,-0.373166,-0.140555,-0.179192,0.210071,-0.033439,-0.053501,0.235785,-0.260488,-0.346702,-0.340795,-1.561442,0.199643,0.093671,0.116515,0.130178,0.346029,-0.272655,-0.41913,-0.330291,0.419136,-0.043432,0.134945,-0.226654,-0.213319,-0.416957,0.026185,-0.210028,-0.074175,0.241016,-0.638789,0.288837,-0.017789,-0.259402,-0.082336,-0.020305,0.065904,0.079723,-0.096431,0.077158,0.358742,0.019644,-0.136552,0.146308,0.18886,0.051105,0.081306,0.139503,-0.077973,0.035759,-0.139266,-0.993069,0.047384,0.229492,0.090302,0.0337,0.086598,0.288351,0.183205,0.109429,0.173972,0.176394,0.347604,-0.331603,0.168351,-0.007398,0.062393,-0.627107,0.319072,0.243044,0.02435,-0.915016,-0.066515,-0.177216,0.054908,0.05844,-0.094785,-0.343883,0.042504,-0.391883,0.017536,0.313119,0.104402,0.305442,-0.285809,0.154441,-0.109531,-0.14237,0.132319,-0.112305,0.017341,-0.078135,-0.148131,-0.118954,-0.266561,-0.153294,0.35087,-0.267456,0.064781,-0.091816,-0.446145,0.170693,-0.193506,0.431884,-0.172154,0.169975],[0.025336,0.457265,0.167708,-0.348537,0.313501,-0.10945,0.213537,0.036064,-0.157318,0.242538,0.193155,0.141989,0.225463,-0.121514,-0.156743,0.062428,0.076117,0.23732,-0.352391,-0.466935,-0.062386,0.34431,-0.223243,0.065246,-0.211891,-0.076563,0.336329,-0.324243,0.394054,0.460342,-0.31825,-0.071746,-0.188538,-0.042538,-0.026634,0.175936,0.308142,-0.14287,0.415347,-0.242281,0.140117,-0.231253,0.196077,-0.047635,-0.122002,-0.220664,-0.104043,-0.840496,0.014651,-0.028446,0.125989,0.015257,-0.713688,-0.056848,0.230928,-0.62029,-0.033237,0.198023,-0.252045,0.329812,0.071105,-0.040654,0.30436,0.085913,0.004204,0.008103,-0.078403,0.253539,0.279249,0.001664,-0.116967,0.31338,-0.266819,-0.714609,-0.198465,-0.082031,-0.511699,0.158125,-0.04606,0.235216,-0.008598,0.320152,0.351355,0.231381,-0.065315,-0.073647,-0.047273,0.344677,-0.100146,-0.320262,-0.486322,-0.061288,-0.093719,-0.281859,0.402857,0.042462,0.203768,0.222871,-0.057551,-0.276321,-0.17123,0.172007,-0.046569,0.310387,0.077143,0.040125,-0.088009,0.03337,0.079975,-0.562783,0.175541,0.351902,0.278153,0.304391,0.244801,0.030704,-0.088459,0.28214,0.158908,-0.631544,0.255484,-0.229295,0.139357,-0.416643,-0.157486,0.182003,-0.207843,0.35053],[-0.428231,0.019231,0.118231,-0.2817,0.194604,0.039884,0.28821,-0.102656,-0.276454,0.103431,-0.195086,-0.018209,0.283801,-0.635236,-0.430098,0.075704,-0.056675,0.034573,0.088496,-0.440176,0.381751,0.36671,-0.026343,-0.080479,-0.236921,0.041653,0.088312,-0.353983,0.100774,0.187061,-0.196266,-0.096781,-0.185125,-0.689926,-0.648536,0.35765,0.139506,-0.245466,0.202424,-0.175149,-0.122267,-0.04318,0.008631,-0.197419,-0.368181,-0.007214,-0.123986,-0.352805,0.195478,0.200981,-0.188864,-0.158176,-0.838937,-0.21918,0.193778,-0.650201,0.165493,-0.109779,-0.200963,0.064937,0.112466,-0.126746,-0.019172,0.182184,0.001098,-0.337004,-0.00333,-0.088547,0.157911,0.061193,-0.060533,0.115996,-0.343779,-0.651071,-0.298561,-0.255582,-0.666918,0.110672,-0.315428,0.039591,-0.240686,0.036808,0.390099,0.208737,-0.397824,-0.067876,-0.690687,0.061317,-0.589529,-0.01644,-0.756693,-0.005642,-0.253252,-0.419982,0.1446,0.090815,-0.121095,0.328354,-0.345815,-0.229164,0.147887,0.1177,-0.012832,0.141065,0.214225,0.063362,0.050459,0.074642,-0.214299,-0.336102,0.480801,0.099725,0.035985,0.229098,0.1198,0.433555,-0.129623,0.157191,0.256346,-0.718733,0.230892,-0.192583,-0.204121,-0.326967,-0.171345,-0.041015,0.059955,0.108948],[0.035633,0.285531,0.118515,-0.102388,-0.239589,-0.363212,-0.297938,-0.059729,0.251997,-0.029076,-0.436503,0.384849,0.029475,-0.43005,-0.056834,0.011828,0.089338,0.083177,0.309722,-0.324609,0.502466,0.005087,0.17482,0.364465,0.252068,-0.225708,0.078794,-0.333472,-0.019724,0.147804,0.15021,-0.119791,-0.110845,-0.114989,-0.011474,0.136173,-0.353008,0.189916,-0.630729,-0.611095,0.315975,-0.212591,0.048888,0.27118,0.207683,-0.141129,-0.125342,-0.343204,-0.101732,-0.322341,0.558481,0.122311,-0.220977,0.133184,0.284155,-0.295433,-0.447072,0.010666,0.132226,0.34531,0.462043,0.291875,0.002505,0.009051,0.074618,0.130706,0.125806,-0.052795,-0.196413,0.023903,-0.772888,-0.140672,-0.257545,-0.351378,-0.071459,0.040098,0.204335,-0.026093,0.256178,0.100126,-0.465848,0.134177,0.188306,0.246553,-0.453365,-0.152,0.098028,0.097689,0.088219,0.056576,-0.638084,-0.083995,-0.203394,-0.762467,0.055746,0.030314,0.051229,-0.207335,0.015264,0.093555,-0.548732,0.307986,0.081849,0.137481,-0.316037,0.147378,-0.004569,-0.098739,-0.096128,0.006601,-0.040325,0.488875,0.063088,0.056374,-0.094691,-0.918214,-0.082757,0.199751,0.217632,-0.305091,0.113306,-0.422506,-0.048572,-0.282487,-0.104452,0.004704,-0.052245,-0.120101],[0.037566,-0.17706,0.247499,-0.200513,0.108184,0.107468,0.112633,-0.15925,-0.689918,0.148648,-0.907879,0.222829,0.203992,0.206366,-0.499712,0.14538,-0.144004,0.058379,0.439204,-0.527162,-0.581103,-0.007119,0.24777,0.031961,-0.092197,-0.32494,-0.032297,-0.664025,-0.076574,0.064637,-0.211028,0.229391,0.277462,0.210914,0.158957,0.347891,-0.422681,-0.235969,-0.050017,0.066766,0.126463,-0.055766,-0.037519,0.193106,-0.061455,0.232422,-0.191056,-0.791229,-0.025171,0.520693,0.198499,0.343012,-0.098072,-0.334657,0.001328,-0.733308,-0.114715,0.122538,-0.141149,0.263139,0.291609,0.064399,0.085122,0.069922,0.623095,-0.121896,0.152181,0.105465,0.16036,0.31858,-0.63759,0.171686,-0.108354,-0.121113,-0.159428,-0.558836,0.045259,0.057641,0.190441,0.602789,-0.167207,-0.205744,0.13956,0.459276,0.133129,0.199563,-0.555278,-0.076815,0.345194,0.525022,-0.556587,-0.48454,-0.447636,-0.788115,0.046477,-0.579688,0.230222,-0.40249,-0.369332,0.294243,0.066144,0.142299,0.220477,0.172912,0.289649,0.455007,-0.670635,0.104898,0.228766,0.164422,0.321329,0.077687,-0.04359,0.031914,0.093349,0.194101,-0.066211,0.16643,0.240125,-0.781454,0.264405,-0.045274,-0.005568,-0.892881,-0.235365,0.162976,0.148418,-0.109619],[0.083873,0.030527,-0.188543,-0.034742,0.031843,0.103163,0.207119,-0.62832,-0.412536,0.297666,-0.143158,0.082445,0.354683,0.027606,-0.428387,0.138235,0.236003,-0.045781,0.049571,0.123921,0.069624,0.108353,-0.916233,0.100493,-0.220792,-0.19707,0.185206,-0.135452,0.054541,0.047718,-0.024542,0.275759,-0.072701,0.252566,-0.062832,0.08072,0.037596,-0.293721,0.360628,0.075674,0.220412,-0.311277,-0.246319,0.163919,-0.170805,-0.182792,-0.371089,-0.089766,0.268687,-0.246792,-0.055732,-0.060391,-0.205077,-0.386026,-0.013701,-0.055751,0.116322,0.12905,-0.275701,0.023988,-0.319619,0.234125,0.304055,0.29412,-0.001656,0.065499,-0.789654,0.153864,0.313452,-0.033891,0.1527,0.209271,-0.1341,0.242189,-0.452052,-0.175229,-0.350348,0.220284,-0.202784,0.045765,-0.387029,0.208095,0.334722,-0.117636,-0.121671,-0.508135,-0.231316,0.346153,-0.121785,-0.002743,-0.204387,-0.243386,-0.318275,0.264915,0.073111,-0.040572,0.228018,0.283033,-0.345722,-0.25228,-0.143709,0.083029,-0.284128,-0.046393,0.261684,-0.048914,-0.078514,-0.070895,0.111247,-0.392654,0.143949,-0.106595,0.095648,0.285659,0.292518,0.015655,-0.364469,0.185518,-0.215286,-0.123701,0.338072,-0.075181,0.186697,0.101402,-0.13394,-0.087621,-0.011052,0.239874],[-0.209131,0.345596,-0.032227,-0.277888,0.278903,-0.314179,0.253672,-0.243142,0.026139,0.214119,-0.021983,0.167213,0.532022,-0.177898,0.078398,-1.028723,-0.327479,0.053362,-0.048589,0.038374,-0.363217,-0.033114,-0.03392,0.061131,-0.248826,-0.135828,0.337163,-0.479014,0.283587,0.477871,0.047465,0.129599,-0.348329,-0.146403,-0.207452,0.236007,-0.227698,-0.214284,0.585246,-0.400937,-0.072577,-0.846028,-0.051452,-0.921674,-0.002202,-0.233152,-0.143504,0.069545,0.205121,-0.173571,0.167792,-0.66047,0.010765,-0.385527,0.339979,0.090596,-0.382693,0.014929,0.525696,0.528093,0.507359,0.085808,-0.295116,-0.186277,0.112796,-0.129316,0.225787,0.042749,0.382664,0.204567,-0.095848,-0.495188,0.355887,0.059014,-0.261685,0.029857,0.160596,0.642864,-0.329182,0.239648,-0.609402,0.210972,0.197034,0.237232,-0.494851,-0.993686,0.005561,-0.163109,-0.099443,0.285269,-0.233179,-0.125504,-0.492145,-0.327859,0.217086,0.024816,0.701903,0.2091,-0.109106,-0.161719,-0.468141,-0.35158,0.223649,0.016593,0.168396,-0.151602,-0.304095,-0.622387,-0.341864,0.218614,-0.218684,0.198865,-0.171262,0.453354,0.308973,-0.088566,-0.484973,0.259283,0.285365,0.01186,0.253481,-0.261756,-0.001126,0.360155,-0.050467,0.291551,-0.300218,0.264198],[-0.053319,0.083633,0.129511,-0.330054,0.049172,0.133457,0.089545,-0.004877,0.113028,0.129288,0.322782,-0.311018,0.113564,0.135788,0.032279,-0.206326,-0.000413,-0.123069,-0.08524,-0.080535,-0.520735,0.118077,0.067501,-0.104041,-0.159067,-0.26318,0.033944,-0.014398,0.057124,0.084909,0.074746,0.136368,0.094602,0.254326,-0.038603,0.202299,0.205433,-0.272013,0.426458,-0.062206,-0.020793,-0.329883,0.011937,-0.310661,-0.206013,-0.288603,-0.040579,-0.72899,0.001415,0.084739,-0.029624,-0.166483,-0.726177,0.089629,0.113404,-0.315821,0.021609,0.149636,0.115649,-0.01962,0.086034,-0.166376,-0.173353,0.047742,-0.032778,-0.138826,0.297615,-0.113002,0.240213,-0.200971,0.260042,0.024341,-0.051499,-0.345226,-0.348763,0.135208,-0.381975,0.006536,-0.44274,-0.005415,-0.106317,-0.056159,0.1172,0.087461,0.025782,-0.286521,-0.270822,0.119701,-0.082156,-0.166385,-0.574677,0.262837,-0.507664,0.460978,-0.026239,0.33669,0.108683,0.039396,-0.299781,0.03367,-0.057516,-0.000737,0.052072,0.039235,0.073348,0.086589,0.042333,-0.23725,-0.011665,-0.224907,0.168748,0.113854,0.053034,-0.097657,0.314445,0.146796,-0.080951,0.059564,0.017672,-0.506009,-0.037701,-0.198608,0.135984,-0.457592,-0.028679,0.037292,0.057244,0.036292],[0.10151,-0.097625,-0.118674,0.142875,0.148421,0.227935,0.199912,-0.392918,-0.264453,-0.158159,0.232792,0.093228,-0.204344,-0.181294,-0.333613,0.269148,0.220863,-0.285664,-0.058031,-0.366858,-0.165304,-0.060852,-0.252737,-0.398965,-0.356989,0.134663,-0.422553,0.065176,-0.212041,-0.103663,-0.0502,0.018351,0.302092,0.027161,0.026597,-0.083288,0.193819,0.119368,0.183901,0.067195,0.15819,-0.266476,-0.115843,0.103609,-0.49008,-0.65977,-0.660057,0.039298,0.091081,-0.210349,0.046861,0.332278,-0.273763,0.284788,-0.154193,-0.00287,0.044765,0.307329,-0.028619,-0.158401,-0.471935,-0.020483,0.417402,0.373556,-0.1693,0.134994,-0.551007,0.185191,0.040264,0.059021,0.04216,0.150586,-0.146401,-0.032677,0.060034,-0.431217,-0.305986,-0.027269,0.092739,-0.246904,-0.04577,0.158083,-0.301566,0.064294,-0.166875,0.027943,0.019251,0.057199,-0.154785,-0.125077,-0.17123,0.061441,-0.552166,-0.263481,-0.098261,0.1255,0.123218,0.246409,-0.036437,-0.882628,0.014689,0.007096,0.364249,-0.230585,0.027464,-0.013961,0.242532,0.065513,0.263629,-0.575396,0.091345,0.208407,-0.103347,-0.023638,-0.265875,-0.221712,-0.18499,-0.115782,-0.134978,-0.063887,0.225588,0.054278,-0.05991,-0.203733,-0.256478,0.538799,0.112758,0.054316],[0.067513,-0.059607,-0.228772,-0.000384,0.201162,-0.287059,-0.163604,-0.17421,0.17736,-0.583404,0.364924,0.119161,-0.45499,-0.253517,0.267778,0.078557,0.079987,-0.178746,-0.130941,-0.030235,-0.271083,0.180827,-0.07485,-0.120349,-0.01578,0.25924,-0.010313,-0.139267,-0.179422,0.039021,0.112339,0.052599,-0.078369,-0.111814,0.078952,-0.392054,0.255687,0.202977,-0.123044,0.102566,-0.012195,0.133386,0.131721,-0.040452,0.216615,0.25444,0.022351,0.219386,0.347388,-0.212571,0.295744,-0.496964,0.193965,0.193135,0.066169,-0.116906,0.079141,0.036478,0.259461,-0.2109,-0.23156,-0.203994,-0.071384,-0.105277,0.080419,0.091533,-0.358187,0.173646,0.146236,-0.042241,0.216711,-0.353475,0.039657,0.048149,-0.1871,0.272576,0.064362,0.143378,0.100407,-0.443024,0.1275,0.337534,-0.158679,-0.043708,-0.054909,-0.206475,0.07226,0.13601,0.070501,-0.156023,-0.117359,0.371404,-0.062823,0.075135,0.285548,0.0011,0.272527,0.033928,0.362274,0.255439,-0.138094,-0.260834,0.152721,-0.019665,-0.372207,-0.283634,0.326569,-0.349804,0.076099,0.035194,-0.225262,0.318645,-0.242105,0.233859,-0.109113,-0.6115,0.204054,-0.172594,-0.148208,0.059292,0.032883,-0.040446,0.006219,-0.149483,0.18926,0.310977,-0.168003,0.2443],[-0.151083,0.096086,0.077437,0.157155,0.275931,0.247073,0.263567,-0.204355,-0.048994,0.242157,0.104203,0.14688,0.213486,-0.337774,-0.071546,0.266951,0.060751,-0.192447,-0.587906,-0.336982,0.103726,0.173023,-0.300044,-0.094206,-0.146858,-0.055494,0.204899,-0.278717,0.145082,0.028334,0.009767,-0.172949,0.040975,-0.159085,-0.189356,0.207904,0.05784,-0.068784,0.201088,0.08244,0.068867,-0.523389,-0.128102,0.06896,-0.771034,-0.68544,-0.191169,-0.581972,0.180218,-0.099494,-0.054434,0.022838,-0.609379,0.099033,0.217523,-0.382629,0.188484,0.149164,0.08659,0.152369,0.005914,0.056392,0.223833,0.015734,-0.055099,-0.080017,-0.388671,0.061662,0.373677,-0.073952,-0.072654,0.276054,-0.274957,-0.061648,-0.237048,-0.243339,-0.292784,0.200839,0.028636,0.060392,0.07264,0.130062,-0.105405,0.080749,-0.055456,-0.001681,-0.184829,0.305611,-0.109283,-0.255921,-0.439295,0.023209,-0.360224,-0.348979,0.23153,-0.055848,0.237587,0.093292,-0.221607,-0.333249,-0.145749,0.126327,0.037833,0.149361,-0.041838,-0.043144,0.113849,-0.074489,0.279636,-0.363989,-0.101517,0.007883,0.120684,0.29717,0.083809,0.003309,-0.17076,0.11858,-0.07597,-0.650035,0.212071,-0.301811,-0.009928,-0.502345,-0.170451,0.246776,-0.325712,0.174348],[-0.064306,-0.160337,-0.090249,-0.103277,-0.059608,-0.02432,-0.028627,0.004525,-0.11663,-0.035825,-0.074462,0.004086,-0.021405,-0.015953,-0.102615,-0.073919,-0.013757,0.057176,0.012572,-0.1069,-0.12154,0.018914,0.042361,0.074041,-0.186026,-0.091824,-0.162304,-0.043531,0.005741,0.14425,0.086405,0.112301,-0.063098,0.079342,0.003205,0.052666,-0.105959,-0.063126,-0.030872,0.117818,-0.071793,0.003163,-0.169516,-0.068318,-0.109543,-0.124049,0.022752,-0.20589,-0.027732,-0.034471,0.018263,0.034283,-0.055145,-0.008316,-0.004986,-0.023724,0.029242,0.013498,-0.049311,0.078025,-0.006473,-0.065723,-0.058632,-0.019512,0.016163,0.034919,-0.140315,-0.078367,-0.142845,-0.000112,-0.10068,0.079905,-0.008803,0.077231,0.001616,-0.078875,-0.138271,-0.190003,0.064156,-0.018329,-0.109265,-0.090476,-0.146998,-0.02403,0.081263,-0.054509,0.006847,-0.124171,0.022031,0.075021,-0.139974,0.065214,-0.076436,-0.123536,-0.035801,-0.136338,0.025153,-0.17423,-0.066662,-0.086382,-0.000815,-0.019744,-0.011675,-0.113388,-0.056017,0.069722,-0.058995,0.059127,-0.098869,-0.143398,-0.094163,-0.016768,0.010581,-0.057425,-0.063909,-0.160658,-0.149957,-0.099265,0.06245,-0.002017,0.050831,-0.056536,0.006546,-0.055647,-0.035952,-0.015112,-0.067709,-0.039861],[-0.081032,0.223246,0.431464,-0.578846,0.010856,-0.185732,0.101907,0.037886,0.133253,0.18705,-0.396729,0.030085,0.185234,-0.071261,-0.11614,-0.092255,0.065834,0.160204,-0.018981,-0.085962,-0.120619,-0.100871,0.036843,-0.031421,-0.04868,-0.102508,0.353843,-0.20942,0.293903,0.074533,-0.242194,0.122284,-0.591049,-0.157045,-0.415205,0.167383,-0.077699,0.005499,0.201969,-0.354382,-0.31684,-0.183525,-0.147508,0.068367,0.366551,-0.160289,0.054451,-0.053724,0.078793,-0.255661,0.035235,-0.130995,-0.107428,-0.773311,0.207273,-0.230438,-0.139753,-0.021133,0.446026,0.202943,0.208945,-0.171505,0.109187,-0.213605,0.184226,-0.522856,0.426995,-0.309018,0.114428,0.105573,-0.098795,0.018919,0.220928,-0.19979,-0.275745,0.183257,0.253732,0.221828,-0.400837,0.289737,-0.547827,0.01589,0.184642,0.141321,-0.255323,-0.132626,-0.094961,-0.066294,0.041613,-0.055533,-0.297493,0.03897,-0.044053,-0.120146,0.177517,0.028421,-0.072838,-0.008896,-0.364258,0.262576,0.184537,0.091548,-0.933897,0.199073,0.189806,0.067144,-0.366142,0.019045,-0.276878,0.15011,0.046735,0.115304,-0.022142,0.004992,0.396739,-0.596431,-0.385471,0.177384,0.1635,-0.145486,0.14158,-0.055864,-0.009261,0.185535,0.066141,-0.531015,0.085879,0.084706],[0.113313,0.273502,0.146528,-0.113231,0.335759,0.103736,0.346107,-0.049823,-0.053331,0.367602,-0.045586,0.158864,0.439411,-0.414877,0.022494,0.252544,0.204406,0.144192,-0.083773,-0.423627,0.178243,0.32548,-0.1322,0.021371,-0.038276,0.119984,0.270176,-0.332309,0.27392,0.219846,-0.003508,0.0128,0.090057,-0.164201,-0.218368,0.234179,0.190929,-0.186564,0.380456,-0.240044,0.079853,-0.257692,-0.061862,-0.003612,-0.022725,-0.260777,-0.237139,-0.347361,0.165481,-0.230939,0.041824,0.087924,-0.786644,-0.001531,0.320182,-0.353461,0.11694,0.21629,-0.192014,0.297166,-0.074435,0.161513,0.270196,0.20984,-0.022423,-0.033731,0.033163,0.283671,0.227217,0.083105,-0.073437,0.253061,-0.131998,-0.44937,-0.096816,-0.227748,-0.364879,0.294148,-0.095227,0.227844,-0.106521,0.396324,0.378211,0.16444,-0.139758,-0.131121,0.097489,0.292717,-0.212177,-0.294842,-0.499012,-0.052974,-0.160319,-0.73733,0.176253,-0.092067,0.278312,0.231874,-0.30066,-0.309362,-0.185136,0.140553,-0.274301,0.20016,0.24795,0.078254,-0.168436,-0.01988,0.244168,-0.776342,0.223328,0.274808,0.109001,0.380417,0.109983,0.120718,0.053392,0.237021,0.079583,-0.570281,0.29104,-0.202162,0.316805,-0.035826,-0.088227,0.122343,-0.104095,0.449205],[0.008952,-0.093953,-0.138596,0.016991,0.115418,0.003549,-0.174698,0.079879,0.080741,-0.119307,0.198543,-0.336554,0.058648,0.251258,0.311292,-0.371753,-0.087068,-0.218617,0.333677,0.129957,-0.278039,-0.138323,0.373681,-0.022463,0.186989,0.007005,-0.090231,0.125097,-0.404118,-0.14826,0.151967,0.055347,0.146024,0.106544,0.1011,-0.032615,0.169264,0.188135,0.086404,0.374104,-0.371769,0.016665,-0.090705,-0.031228,-0.05243,0.107599,0.145022,0.121124,0.230695,0.278005,-0.056716,-0.11338,0.029032,0.138917,-0.233346,0.204796,0.045513,-0.277304,0.306815,-0.182648,0.127334,-0.146238,-0.096768,-0.190886,-0.007005,0.13126,0.128109,-0.227624,0.13435,-0.002812,0.240862,-0.224944,0.065276,0.048458,0.276996,0.229548,0.224781,0.21621,0.048392,-0.129817,0.055333,0.08209,-0.331804,-0.188268,-0.139138,-0.002666,0.001349,-0.171947,0.113924,0.187443,0.046223,-0.053683,-0.043988,0.014622,-0.243825,-0.150704,0.25716,0.045378,0.084836,0.053365,0.263037,-0.272382,0.333366,-0.187107,-0.18346,-0.17152,0.003746,-0.379348,-0.261815,0.124353,-0.316196,-0.339345,-0.255579,0.205742,0.178933,0.005367,-0.145339,-0.192847,0.04341,0.114329,-0.14027,0.071425,0.206869,-0.069541,0.205998,0.148412,0.097157,-0.024958],[-0.19424,0.35798,0.292035,-0.485054,0.284034,-0.102956,0.234939,-0.297327,-0.191982,0.154032,-0.467267,0.22147,0.169352,-0.509289,-0.365903,0.159319,-0.220053,0.287165,-0.217359,-0.530932,0.38196,0.258753,-0.013256,0.11357,-0.370994,-0.085137,0.178521,-0.132703,-0.089289,0.203469,-0.152753,-0.289838,-0.040608,-0.964892,-0.077236,0.507576,-0.175068,-0.660083,0.327011,-0.349554,0.173642,-0.333865,0.165795,0.015092,-0.15008,-0.48316,-0.409072,-0.682,0.294056,0.208675,-0.295203,-0.133861,-0.77531,0.048048,0.245806,-0.749463,-0.166448,0.060608,-0.298787,0.323089,0.096612,-0.202274,-0.089416,0.029548,0.184514,-0.159741,-0.165034,0.071234,0.291854,0.025526,-0.481049,0.208441,-0.412177,-0.658977,-0.216079,-0.253338,-0.532711,0.236021,-0.145121,0.130738,-0.279903,0.049379,0.264118,0.560273,-0.147855,0.114975,-0.515687,0.147292,-0.377088,-0.303297,-0.374122,-0.07287,-0.080815,-0.775548,0.163232,-0.032554,0.39267,0.268608,0.020596,-0.572325,-0.326832,-0.057028,-0.43622,0.213722,0.413092,0.070216,-0.188314,0.227249,-0.001233,-0.338165,0.376504,0.335748,0.165004,0.337823,0.033154,0.361994,-0.159711,0.185592,0.258166,-0.793713,0.181235,-0.461053,-0.448431,-0.388651,-0.482047,-0.29792,-0.090546,0.286814],[0.072418,0.015694,0.209011,-0.188727,0.209839,0.180975,0.11248,-0.278485,0.04812,0.312321,0.094373,-0.0789,0.20745,0.086567,-0.079523,0.325293,0.09974,0.342943,0.098714,-0.406788,-0.144198,0.242138,-0.671723,-0.181987,-0.180174,0.096802,0.191874,-0.114979,0.208902,0.378578,-0.09609,0.175343,-0.108315,0.112268,-0.166163,0.160948,0.055029,0.045099,0.175752,-0.049106,0.093287,-0.173165,-0.090043,-0.122009,-0.122836,-0.255009,0.152285,-0.886241,0.445396,-0.340851,0.098763,0.031041,-0.189556,0.072391,0.289875,-0.228858,0.214222,-0.069269,0.091689,0.533606,0.127107,-0.385401,0.360572,0.080646,0.120737,0.017991,-0.554244,-0.166057,0.413449,0.083471,0.102734,0.188783,-0.06541,-0.133198,-0.073972,0.083685,-0.427066,0.25436,-0.01093,0.090136,0.201744,0.248751,0.179295,0.279585,-0.14701,-0.49776,0.169555,0.363018,0.013578,-0.41021,-0.39569,-0.100722,-0.173508,0.304462,0.372453,0.192641,0.199688,0.118651,-0.427411,-0.229392,0.112556,0.130264,-0.020169,0.114301,0.059864,0.080187,0.016882,-0.132264,0.007851,-0.429694,0.047812,0.243723,0.285283,0.275826,0.084457,-0.599914,-0.113647,0.045861,0.068447,-0.23199,0.245353,0.023846,0.065979,-0.613812,-0.220717,-0.097945,-0.102478,0.205936],[-0.157083,-0.037884,-0.151496,0.106755,0.366454,0.181326,0.065399,-0.272871,0.074443,-0.259755,0.406422,0.311079,0.087464,-0.234439,-0.117977,0.312228,0.22345,-0.183714,-0.010621,-0.030234,-0.275796,0.256047,-0.004365,0.016233,0.009692,0.120079,-0.202529,-0.098393,-0.076344,0.101921,0.103226,-0.051063,-0.10787,0.042652,0.086152,-0.140042,0.461364,0.432463,0.224376,-0.214732,0.233614,-0.264991,0.015131,-0.412338,-0.056475,-0.551567,-0.50315,0.010195,0.431616,-0.405819,0.333097,0.052123,-0.234765,0.320323,0.098624,-0.040742,-0.057546,0.256604,-0.237271,0.087743,-0.192986,-0.046328,0.081103,0.14947,-0.242242,0.294941,-0.385841,0.082298,0.260413,-0.217153,-0.047882,0.134416,-0.147731,-0.443878,-0.04785,-0.290306,0.054418,0.479202,0.125029,0.063495,0.356923,0.352192,-0.12746,0.329437,-0.339369,-0.347957,0.211591,0.349178,-0.03451,-0.254253,-0.052411,0.269295,-0.050925,-0.263562,0.334409,-0.108367,0.459753,0.109993,-0.05011,-0.519195,-0.072901,-0.013556,0.265444,0.121311,-0.120988,-0.114901,0.267934,0.004288,0.276325,-0.164735,0.006655,0.439645,-0.079438,0.276781,-0.127214,-0.328827,-0.141348,-0.031094,0.029976,-0.225578,0.571054,-0.072537,-0.03201,-0.063079,-0.145572,0.497928,-0.48051,0.301149],[-0.013421,0.209479,-0.03563,0.014638,0.068662,-0.105759,-0.158332,-0.132457,0.331651,0.027712,0.165751,0.210681,0.12544,-0.687895,0.059721,0.113457,0.001408,0.07756,0.139295,-0.460756,0.580854,0.174777,-0.063673,0.351136,-0.216661,-0.081083,0.07668,-0.600851,0.044743,-0.023383,-0.059659,0.334623,0.045987,0.192687,-0.161306,0.183225,-0.229852,0.223885,0.11657,0.00891,0.315924,-0.102214,0.048743,0.193872,-0.132852,-0.241048,-0.025259,-0.36523,-0.019158,0.048519,0.377446,-0.084306,0.316823,0.596922,0.145767,-0.514335,-0.200703,0.188545,0.040012,0.350698,0.225463,0.183531,-0.069193,-0.060776,0.307394,0.007571,-0.322182,0.061037,-0.065274,0.125732,-0.400912,0.071601,-0.116808,-0.32483,0.229405,0.244338,-0.069755,-0.044798,0.092694,-0.214556,-0.231858,0.116609,0.200105,0.103585,-0.503819,-0.135741,-0.018378,0.262485,-0.130838,0.625517,-0.446246,-0.0211,-0.107669,-1.564875,0.031562,-0.268576,-0.118983,0.218233,-0.045564,-0.004969,-0.128464,0.162413,0.056612,-0.259885,-0.145174,0.043627,-0.091039,-0.075861,0.049672,-0.010616,0.003113,0.359889,-0.018563,0.204795,0.024036,-0.134795,0.04835,0.173026,0.118071,-0.269579,0.1039,-0.517764,0.052568,0.07182,-0.403478,0.156517,0.066094,0.110145],[-0.178314,-0.262877,-0.255799,0.004921,0.25251,0.160595,0.225435,-0.236956,-0.06943,-0.04392,-0.274123,0.194793,0.038504,-0.20986,-0.578039,0.064714,0.005851,-0.380672,0.23799,-0.462686,0.088797,-0.023443,0.221119,-0.008688,0.158866,0.154222,-0.269017,-0.417065,-0.101147,0.078866,-0.109442,-0.02022,0.023418,-0.233234,-0.360161,0.123206,0.063409,0.141993,0.28257,0.000339,0.067188,0.122544,0.165001,-0.29653,-0.477131,-0.093011,0.007918,-0.344342,-0.02091,-0.007608,0.098238,0.154044,-0.056191,0.15443,0.139347,-0.377332,0.091837,0.361022,0.073615,-0.153581,-0.237902,-0.071973,0.306703,0.350594,-0.230387,-0.408635,0.023752,0.027497,0.321294,0.321985,-0.543447,0.020964,-0.15651,-0.397877,0.115176,-0.373563,-0.026786,0.178454,-0.239101,0.214072,0.223858,-0.074507,-0.143885,0.34647,-0.043424,-0.005521,-0.186091,-0.0012,-0.424792,-0.033688,-0.27639,0.003118,-0.135715,-0.288871,0.135252,-0.106921,0.086327,0.205984,-0.288019,-0.066992,-0.000233,-0.050135,0.649592,-0.176941,0.13342,0.037528,-0.026215,0.004312,0.032894,-0.035258,-0.159991,0.326265,-0.031712,0.054332,-0.113875,-0.014526,0.088677,0.007946,0.225101,-0.531992,0.490675,0.312937,-0.654621,-0.30164,0.009835,0.336914,-0.448239,0.003462],[-0.106644,0.040129,0.022112,-0.028241,0.040003,0.014068,-0.102473,-0.105672,0.055141,0.038879,0.031919,0.021469,-0.008604,-0.087094,-0.062025,0.019389,0.051326,-0.082413,-0.095869,0.037965,0.014091,-0.041191,-0.032091,-0.007077,-0.001068,0.003945,-0.004255,0.042672,-0.068163,0.046186,-0.020169,-0.059375,-0.062257,-0.06192,0.000335,0.036987,-0.072657,-0.012617,-0.04577,0.035863,-0.101988,-0.002067,0.006858,-0.052508,0.009469,-0.017431,-0.023201,-0.01188,-0.066915,-0.006788,-0.002358,0.046823,-0.065031,-0.065463,0.045692,-0.075925,-0.127857,-0.007805,-0.010687,-0.099914,-0.064132,-0.067801,-0.098579,0.029453,0.049295,-0.065041,0.092469,-0.053343,0.009552,-0.085425,0.045616,-0.099184,-0.074359,-0.04165,0.007412,-0.013544,-0.083747,0.01008,-0.074919,0.02701,-0.113518,-0.083763,-0.08184,0.066621,-0.015716,0.028265,0.051427,-0.01323,0.016923,-0.052383,0.030781,-0.037575,-0.054281,0.031769,-0.096261,0.026481,-0.029843,0.004617,-0.09945,-0.044527,-0.007961,0.006036,0.013937,-0.04001,0.046418,-0.103035,0.008438,-0.079967,-0.01044,-0.083708,0.06487,0.038329,0.031557,-0.061995,-0.042231,-0.080147,0.043678,-0.05968,-0.111475,0.059223,-0.007251,-0.085006,-0.094693,-0.067827,0.056642,-0.091691,-0.029843,0.023543],[-0.082349,0.255056,0.214897,-0.496569,0.181715,0.283412,0.156189,-0.057635,-0.309244,0.23514,-0.619883,0.075106,0.427081,-0.062598,-0.414965,0.187507,-0.037572,0.187061,-0.167853,-0.538507,-0.13848,0.075808,-0.136025,0.31121,-0.477347,-0.162712,0.163137,-0.403508,0.292079,0.177672,-0.416101,0.041976,-0.271405,-0.554248,-0.657195,0.285246,-0.445357,-0.486297,-0.023852,-0.076531,0.26928,-0.333782,0.049614,0.264362,-0.397685,-0.118953,0.041985,-0.400954,0.240483,-0.051872,-0.102503,0.287321,-0.155114,-0.322727,0.194068,-0.315887,-0.39279,0.175586,-0.395993,0.257795,0.057445,0.039,0.125752,0.181887,-0.177153,-0.558418,-0.091939,0.019216,0.030735,0.182112,-0.212284,0.308521,-0.093438,-0.088629,-0.128696,-0.653076,-0.601221,0.057561,-0.234403,0.375057,-0.327401,-0.081772,0.258635,0.31827,0.135839,-0.008592,-0.379642,0.068629,-0.194155,-0.179243,-0.806479,-0.185142,-0.523287,-0.386984,0.278829,-0.542959,0.238647,-0.025817,-0.327862,-0.24393,-0.015292,0.296212,-0.441838,0.160366,0.211559,0.333645,-0.446196,0.043315,0.154348,-0.098083,0.363012,-0.014195,0.128339,0.120229,0.166803,0.112391,-0.101231,0.314446,0.282856,-0.264151,0.193799,-0.351352,-0.39453,-0.329698,-0.211748,-0.279467,0.031477,0.225665],[-0.001399,0.095615,0.049704,-0.206028,0.046795,0.050623,0.257127,0.175581,-0.155914,0.255516,-0.020818,0.087257,0.075071,0.097528,-0.322977,0.171408,-0.135756,0.038615,0.137832,-0.395099,0.197044,0.058601,0.211702,0.22374,0.148286,0.210718,0.133033,-0.366974,0.180022,0.1108,-0.404811,0.093901,-0.11886,-0.179877,-0.792177,0.231111,0.099314,-0.244919,0.065228,0.166441,0.041669,0.083722,0.009837,0.033444,0.089912,0.017453,0.164976,-0.674753,-0.138631,0.154597,0.00466,0.175892,-0.110226,-0.332889,0.213814,-0.384716,0.100172,0.144099,0.096561,0.020944,-0.039663,0.069442,0.131404,0.182979,0.040017,-0.72578,0.165177,-0.062825,0.037236,-0.009065,0.131396,0.119309,-0.267674,-0.242503,-0.018013,0.092291,0.286171,-0.092673,-0.231186,0.322241,-0.23824,0.034318,0.354759,0.117218,0.096453,-0.010537,-0.121072,0.277746,-0.059313,0.048789,-1.111253,-0.013556,-0.455014,-0.157148,0.088542,0.105333,-0.04487,0.27718,-0.333391,0.090121,0.207858,0.195356,-0.176535,0.075976,0.342338,0.005456,0.032554,0.006272,0.002064,0.100105,0.237201,0.116224,0.255032,0.0943,0.183174,-0.159571,-0.16538,0.181683,0.40307,-0.364178,0.128444,-0.281379,-0.047244,-0.592735,0.532347,0.120872,-0.112307,0.079217],[-0.113375,0.055006,0.296956,-0.156387,0.228666,0.151367,0.208458,-0.156894,-0.125872,0.259102,0.223167,-0.048471,0.034845,0.070427,-0.141543,0.131754,0.21072,0.256748,-0.655448,-0.225262,0.001732,0.18022,-0.094616,-0.053083,-0.108919,-0.067662,0.120429,-0.027705,-0.037195,0.333036,0.226364,0.335688,-0.092788,0.062271,0.178246,0.102045,-0.062466,-0.114127,0.540177,-0.105691,0.072622,-0.115454,0.120094,-0.019071,0.066339,0.065836,0.04708,0.039422,0.250249,0.035848,0.205416,-0.220964,0.070298,0.038543,-0.01918,-0.10651,0.007198,-0.127866,0.072015,0.465287,0.049799,-0.218364,0.206565,0.015448,0.032897,0.260212,-0.028075,0.008467,0.369145,0.126042,-0.058759,-0.085355,0.338472,-0.068013,-0.387014,0.01014,-0.094369,0.008344,-0.176601,0.112032,0.220037,0.177147,0.188691,0.129882,-0.104093,-0.528083,0.009487,0.134636,-0.535602,0.276323,0.193585,-0.111102,0.090574,0.259103,0.045299,-0.056482,-0.030666,0.214406,-0.390585,-0.113827,-0.376625,0.160148,0.073909,-0.273172,0.192627,-0.092488,-0.047369,-0.20691,-0.108584,-0.221252,0.017497,0.084201,0.023451,0.160523,0.07597,-0.12612,0.249734,0.054708,0.004676,0.282563,0.143355,-0.169142,0.148984,0.265028,-0.330957,0.261144,-0.126713,0.238137],[-0.435896,-0.038177,0.10585,-0.406153,0.244687,0.14216,-0.077867,0.030186,-0.0386,-0.034788,0.042261,-0.200108,0.2542,0.105393,-0.052278,0.119249,0.089564,-0.003744,-0.480912,-0.090179,-0.486456,-0.022782,0.009061,-0.005202,0.043824,-0.258634,-0.029741,0.019656,0.415879,0.277422,-0.097107,-0.19282,0.166715,0.094946,0.143895,-0.00588,0.276239,-0.368246,0.094654,-0.28018,-0.005371,-0.444669,-0.174348,-0.445543,-0.34012,-0.546453,-0.445929,-0.118537,0.151839,-0.462767,0.098327,0.225812,-0.258204,0.116425,0.259642,-0.337758,-0.501852,0.218867,-0.277009,0.126382,0.252603,-0.099557,-0.234027,0.030141,-0.214807,0.172491,0.399599,0.140369,0.107978,-0.096016,-0.031154,0.090325,0.02453,-0.435789,-0.182481,-0.130247,0.15409,0.232874,-0.136896,0.077044,0.004297,0.114042,-0.110842,0.223875,0.064702,0.003661,-0.087047,0.136825,-0.218117,-0.434848,-0.012667,0.162637,-0.137102,-0.024173,0.278473,-0.134844,0.274694,-0.334345,-0.336993,-0.296884,0.07446,0.049015,0.116223,0.255522,0.120524,-0.195551,0.086334,-0.023146,0.244865,-0.19286,-0.062158,-0.065099,0.148053,0.112822,0.19652,-0.512937,-0.289665,0.103143,-0.231032,-0.7077,0.18409,0.07817,0.084073,-0.132251,-0.350849,0.217513,-0.31559,-0.04643],[-0.032844,0.023737,0.099771,-0.379096,0.159121,0.127486,0.316162,-0.023171,-0.087379,0.261357,0.342389,-0.427869,0.14007,0.091064,0.048063,-0.08564,0.061537,0.01617,-0.2769,0.075465,-0.030371,0.023483,-0.501152,-0.328526,-0.108135,0.211624,0.235715,-0.268185,0.114915,-0.003291,0.009118,0.202233,-0.267779,-0.245529,-0.502721,0.088772,0.272738,-0.127451,0.353535,0.048453,-0.165296,-0.252775,-0.087081,-0.126408,0.031132,-0.450976,0.007121,-0.114073,0.336148,-0.123742,-0.37958,-0.34233,-0.177574,-0.035715,-0.082002,0.105323,0.065135,-0.174103,0.20894,0.148502,-0.236228,-0.120155,0.11921,0.131442,0.064368,-0.131163,-0.036107,0.121594,0.332922,-0.330335,0.386981,-0.032377,0.003736,-0.099301,-0.07591,0.270561,-0.316271,0.143611,-0.55684,-0.024256,-0.031311,0.417297,0.193839,-0.198857,-0.141644,-0.087398,0.126155,0.21569,-0.524711,-0.086239,-0.705916,-0.027405,-0.061232,0.487366,-0.108954,-0.068099,0.017531,0.283306,-0.523717,-0.373792,0.101422,0.054976,-0.627848,-0.130518,0.319906,-0.042928,-0.065949,-0.16008,0.014392,-0.63011,0.123214,-0.111979,0.122123,-0.009758,0.33742,0.099991,-0.074437,0.039018,0.005104,0.196405,0.076257,-0.435502,0.327095,0.1351,0.317511,-0.297947,0.078567,0.276026],[-0.225961,0.030204,0.214551,-0.443043,0.197604,0.052436,0.000538,0.239934,-0.020901,0.056953,0.01644,-0.31147,0.111396,0.092807,-0.000758,-0.045124,-0.02371,-0.142172,-0.412248,-0.318813,-0.448061,0.116666,0.110209,0.135783,0.031937,-0.084975,0.026926,-0.042668,0.437153,0.463064,-0.034871,-0.288518,0.071209,-0.007068,0.013077,0.06803,0.254597,-0.399216,0.305231,-0.31404,-0.233293,-0.290015,-0.131014,-0.458404,-0.376534,-0.234685,-0.195712,-0.233494,-0.020746,-0.216142,0.068653,0.052627,-0.029437,0.265464,0.37069,-0.370661,-0.414304,0.113493,-0.349008,0.084381,0.283688,-0.258329,-0.122292,-0.133309,-0.241138,0.15387,0.477545,-0.022843,0.238747,-0.011886,0.005943,0.062353,-0.198756,-0.762824,0.068629,-0.03644,0.008065,0.12683,-0.148702,0.111415,-0.017022,-0.095544,-0.08892,0.301359,0.115472,0.057796,-0.285958,-0.060169,-0.198812,-0.530461,-0.096739,0.096879,-0.165319,-0.178864,0.159222,-0.228012,0.051664,-0.249671,-0.078825,-0.162079,0.061576,0.006651,0.063907,0.174854,0.115651,0.005822,-0.045288,0.033535,0.051034,-0.319099,-0.008437,0.04197,0.214501,0.031601,0.228474,-0.369865,-0.227714,0.124996,-0.005564,-0.580785,0.245763,0.056675,0.025132,-0.274003,-0.129633,0.363379,-0.231137,-0.029442],[0.215582,0.149411,0.06467,-0.155658,-0.095231,0.113974,0.023584,0.277409,0.312303,0.021205,0.17724,-0.235107,-0.306469,0.161226,0.134248,-0.309239,-0.034466,0.30405,-0.545991,0.127356,0.175517,0.050945,-0.120133,0.342251,0.0372,-0.166894,-0.036388,0.046227,0.156078,-0.354213,-0.087947,0.166812,-0.025696,-0.061697,-0.198234,-0.19286,0.671336,0.034956,0.258545,-0.050112,-0.084153,-0.107019,-0.120658,-0.172092,0.117864,-0.101102,-0.053661,0.149229,-0.330695,-0.091773,0.07498,0.0249,0.087886,0.136257,-0.201775,0.095355,0.21413,0.106764,0.120276,-0.30755,-0.196662,0.076418,0.03542,0.026034,-0.343634,-0.072378,0.309207,0.025165,-0.029942,0.203351,0.257765,-0.073337,0.202208,-0.209287,-0.027467,0.216802,0.007759,-0.240986,-0.27091,-0.268772,-0.128682,0.087008,0.187577,-0.562145,0.042231,-0.263842,0.323036,0.162519,-0.27244,-0.090132,0.099292,0.11317,-0.052495,0.171957,-0.125974,-0.331901,-0.600859,0.444238,-0.058396,-0.281039,0.354919,-0.01213,-0.165664,-0.197311,0.18996,-0.668491,-0.173924,0.029619,-0.342032,-0.047576,0.092016,0.168535,-0.130507,-0.238066,0.133171,0.056316,0.033717,-0.065905,0.285112,0.231802,0.159521,-0.1239,-0.076982,0.293137,0.0373,0.079762,0.117911,0.002229],[0.21674,0.052373,-0.148933,0.071317,0.191232,0.423513,0.142578,-0.503865,0.139919,-0.017199,-0.118466,0.088916,-0.120454,-0.219588,-0.289872,0.432357,0.176768,-0.180997,-0.099193,-0.33745,0.219894,0.239393,-0.196188,-0.392667,-0.076309,0.164963,-0.086141,0.09212,0.06623,-0.008538,0.161511,0.116031,-0.095198,0.041595,-0.026493,-0.117305,0.008734,-0.061639,0.109806,-0.122949,0.031998,-0.239525,-0.031863,0.609287,-0.507197,-0.964988,0.38043,-0.058108,0.28785,0.086571,-0.093044,0.079104,-0.246452,0.00476,0.367731,-0.027701,0.223732,-0.138475,0.352726,-0.006292,-0.381084,-0.986666,0.480965,0.186397,-0.088352,0.293323,-0.367824,-0.26655,0.209307,-0.309982,-0.050849,0.301095,-0.279649,0.213669,0.314331,-0.380163,-0.563684,0.069766,0.258049,-0.069378,0.05649,0.147992,-0.304509,0.28036,0.016808,0.04968,0.011182,0.285695,0.103346,-0.038012,-0.251054,0.069541,-0.307126,-0.17737,0.154996,-0.037016,0.061723,0.105205,0.252072,-0.525146,-0.275596,-0.019215,-0.443959,0.046696,-0.429904,0.203945,-0.025485,0.022241,0.190746,-0.812531,-0.015158,0.143012,0.02958,0.007566,-0.355551,-0.220958,-0.097201,-0.017775,-0.106939,-0.171086,-0.062059,-0.318017,0.143169,-0.370758,-0.461097,-0.055274,-0.128033,0.133873],[-0.119985,0.044434,0.047202,-0.320768,0.274945,0.13418,0.045874,0.035913,-0.088058,0.150916,-0.11792,0.032142,0.26132,-0.276646,-0.016781,0.07629,0.117584,0.182139,-0.654,-0.377267,0.08538,0.34302,-0.184668,0.078404,-0.181035,-0.151646,0.156933,0.023139,0.346102,0.289711,-0.215975,-0.071526,-0.25465,-0.35342,-0.079613,0.086066,0.154674,-0.10554,0.187311,-0.017975,0.163056,-0.63372,0.115524,0.049547,-0.591333,-0.896605,-0.073541,-0.52687,0.258944,-0.153531,-0.066484,0.007814,-0.284961,-0.013043,0.242353,-0.200071,0.017778,0.264795,-0.098563,0.16523,-0.010865,0.121981,0.219909,-0.085153,-0.098239,0.080372,-0.189085,0.270379,0.248595,0.158022,-0.177037,0.190409,-0.104712,-0.711581,-0.227386,-0.056803,0.04869,0.116089,0.089897,0.147095,0.013848,-0.000192,-0.048558,0.164416,-0.050205,0.066358,0.007355,0.169626,-0.379172,-0.122579,0.02159,0.044542,-0.158957,-0.864273,0.265863,-0.406668,0.254267,0.06499,0.014942,-0.944816,-0.148377,-0.005944,0.059477,0.11437,0.128009,0.105738,-0.279011,0.190587,0.291013,-0.347687,-0.049477,0.018541,0.08221,0.23269,0.15613,-0.094173,-0.050877,0.181425,-0.00066,-0.261795,0.348636,-0.107953,-0.180178,-0.13811,-0.632188,0.152606,-0.388602,0.185187],[0.088489,0.027391,-0.08697,-0.063615,0.079209,-0.06622,0.020312,0.019293,0.016652,0.036664,0.033819,0.038595,0.052355,-0.081588,0.051747,-0.06958,0.055024,-0.172615,0.028459,0.062109,-0.023004,-0.045118,-0.1046,-0.063603,0.082195,-0.173992,0.048356,0.02817,0.032984,0.001124,-0.118294,-0.072243,0.123677,-0.150923,-0.107055,-0.209654,0.017665,0.000736,-0.072523,-0.036141,-0.102965,-0.060222,-0.040814,-0.09328,-0.19787,-0.182999,-0.042334,-0.144585,-0.012584,-0.146595,-0.007982,-0.007042,-0.042525,0.06338,-0.053828,-0.054024,0.002992,-0.028421,-0.008079,-0.080476,-0.123184,0.016349,-0.066594,0.022406,0.005162,-0.045354,-0.049559,-0.062098,0.02948,0.014806,0.060493,-0.003871,-0.128561,-0.104504,-0.135725,-0.190943,-0.010091,-0.013996,0.019515,-0.119672,-0.113892,0.068093,0.144145,0.021802,0.00269,-0.086609,-0.0355,-0.154351,-0.100981,-0.036522,-0.043078,0.062856,-0.116918,-0.173222,-0.056707,-0.116752,-0.083184,-0.031682,0.070171,-0.107579,-0.017646,-0.132346,-0.125377,-0.024331,-0.073214,0.052026,-0.07811,-0.025374,0.06192,0.046828,-0.082089,-0.131594,-0.153807,0.107253,0.005029,-0.053783,-0.129269,0.088266,-0.066778,-0.150509,-0.082638,-0.035269,0.076975,-0.177411,-0.107672,-0.131579,-0.188658,0.031359],[-0.082673,0.215821,0.359631,0.086799,0.152313,0.215218,0.470285,0.035414,0.022607,0.090503,0.074898,0.159871,0.39123,0.142557,0.136896,0.040125,0.127881,0.321544,0.000378,0.091096,-0.067303,0.113173,-0.034754,0.095083,-0.033557,0.165362,0.178929,-0.358962,0.27472,0.28423,-0.023645,0.183393,0.08159,0.229193,0.015957,0.161346,0.243561,0.099558,-0.108925,-0.087176,0.394143,0.090253,0.239694,-0.14775,0.127711,0.053014,0.14595,-0.24162,-0.067748,-0.138297,0.287115,0.170172,-0.020251,0.15358,0.310561,-0.107473,-0.007379,0.205297,0.121199,0.186758,-0.037136,0.148314,0.173364,0.347088,0.233073,-0.101461,0.070196,0.166308,0.187969,0.217807,-0.167807,0.245347,-0.001136,-0.171852,-0.170928,-0.017659,0.018525,0.079147,-0.092386,0.338979,0.156865,0.274476,0.358992,0.219336,0.140689,0.014674,0.047461,0.470547,0.184989,-0.144554,-0.404627,0.213617,-0.115451,0.229071,0.24694,0.021103,0.167066,0.28005,0.095258,0.142625,0.081806,0.396886,0.134675,0.249036,0.181141,0.262236,-0.067591,0.080521,0.239413,0.152298,0.258815,0.495191,0.189231,0.216794,0.21689,-0.199935,0.223239,0.341443,0.17651,-0.247802,0.331071,0.174641,-0.055955,-0.455808,0.136319,0.321544,-0.066211,0.242623],[0.07465,-0.00649,-0.115721,-0.148546,0.190058,0.226465,0.285621,0.000987,-0.193773,0.011391,-0.0466,0.006265,0.067557,-0.028674,-0.481863,0.111703,0.025246,-0.255445,0.26822,-0.212723,0.011196,-0.23125,0.181985,-0.139499,0.009205,0.156556,0.026196,-0.083401,0.135202,0.049032,-0.311242,0.19331,-0.042814,-0.210901,-0.527815,0.013233,0.054792,0.014637,-0.102085,0.205965,0.108544,0.138438,-0.066286,-0.081724,-0.19923,0.035954,-0.085135,-0.308531,-0.026403,-0.027282,-0.138147,0.243955,-0.009303,-0.503833,0.08145,0.030175,-0.126207,0.154309,-0.037288,-0.014025,-0.135216,0.042789,0.20351,0.165385,-0.054647,-0.456176,0.039849,0.007822,0.068678,0.028711,-0.009946,0.188908,-0.081897,-0.007649,-0.171923,-0.107731,0.063802,0.232906,-0.281241,0.257455,-0.096989,0.077737,0.01078,0.382254,-0.006353,-0.017883,-0.058647,-0.073822,0.096107,0.087169,-0.671997,-0.092875,-0.32582,-0.022765,0.096753,-0.020911,0.086871,0.176458,-0.101237,0.05468,0.279285,0.19986,0.323148,-0.021335,0.222875,0.128363,-0.030091,-0.014144,0.185433,-0.017047,-0.006408,0.122973,0.114821,0.09008,0.149294,-0.212763,-0.122856,0.145386,0.24544,-0.37963,0.300589,0.030667,-0.010938,-0.399107,0.223605,0.343001,-0.034788,-0.009382],[0.012109,0.14491,0.137546,-0.219421,0.197663,0.125536,0.216414,0.127011,-0.12765,0.271431,-0.144702,-0.006686,0.212425,-0.211793,0.217729,0.014954,0.172785,0.109234,-0.404526,-0.053244,-0.014365,0.31267,-0.191957,-0.041799,-0.100009,-0.273446,0.143018,-0.091792,0.376302,0.236025,-0.029839,-0.137531,-0.095103,-0.249201,-0.311881,0.073879,0.218111,-0.240012,0.415322,-0.21153,0.135926,-0.510935,-0.080444,-0.0192,-0.255757,-0.423475,-0.165458,-0.054338,0.324695,-0.109589,-0.053915,-0.049859,-0.83074,-0.238092,0.134522,-0.157342,-0.252935,0.139774,-0.120746,0.266906,-0.010969,0.184318,0.178146,0.036946,-0.108942,-0.081039,0.037119,0.360002,0.263873,0.102334,-0.140954,0.113175,0.197585,-0.53396,-0.325113,-0.144963,-0.206807,0.194086,-0.130567,0.045819,-0.027619,0.150052,0.185811,0.022974,-0.11783,-0.106896,0.028004,0.169255,-0.308721,-0.064562,-0.59604,-0.140364,-0.296497,-0.538841,0.168132,-0.257262,0.315734,0.008666,-0.077899,-0.563739,-0.225867,0.030463,-0.224743,0.166387,0.201133,0.024433,-0.376855,0.121374,0.224247,-0.544257,-0.164862,0.058983,0.200348,0.236706,0.240046,-0.024311,-0.129324,0.138671,0.042196,-0.285171,0.172896,-0.245923,0.103369,0.014935,-0.489668,-0.008012,-0.191004,0.359473],[-0.085255,-0.148415,-0.047179,-0.061116,0.092513,0.081254,-0.003191,-0.071448,-0.009192,-0.043337,-0.036785,-0.08135,-0.086477,-0.048413,-0.092382,-0.072997,-0.058183,0.014439,-0.041665,-0.063476,0.088958,0.011892,0.056801,-0.078246,-0.031921,-0.041591,-0.071317,-0.01244,0.041858,-0.106451,-0.118956,-0.044523,0.031669,-0.10035,-0.072814,-0.133268,0.012884,0.040435,-0.121558,0.058731,-0.08757,-0.085992,-0.049898,-0.159434,-0.115904,-0.047111,-0.104314,-0.052185,-0.051758,-0.036385,-0.028876,-0.075216,-0.070748,0.012006,-0.10776,-0.083771,-0.058667,0.032318,0.017801,-0.071351,-0.074171,-0.016966,-0.014417,0.00509,0.008065,-0.020199,-0.064119,-0.05899,-0.060372,-0.10441,-0.048822,-0.07412,0.09915,-0.115792,-0.028647,-0.00179,-0.068241,-0.047983,-0.013114,0.01939,0.018137,-0.021149,-0.090124,-0.001682,0.005103,-0.015256,-0.080596,-0.118011,0.028935,-0.004284,-0.009876,-0.09407,-0.042341,-0.084856,-0.021514,0.087764,0.015664,-0.021299,0.001304,-0.020722,-0.094137,-0.002962,-0.097359,0.010288,0.009345,-0.078241,0.016168,0.025538,0.022257,-0.042557,-0.046119,-0.041078,-0.013723,-0.000687,-0.141126,-0.012587,-0.086454,-0.037435,-0.0119,-0.060333,0.010972,-0.099099,-0.078245,0.031858,0.058341,-0.024126,0.050527,-0.117528],[-0.065042,0.043936,0.217475,-0.402912,0.365665,0.000209,0.29447,-0.007257,-0.109088,0.212776,-0.114251,0.206086,0.261493,-0.080631,-0.264833,0.381383,0.008234,0.32348,-0.093564,0.00094,-0.010518,0.291798,-0.107573,-0.104148,-0.312268,-0.377386,0.157282,-0.110848,0.224799,0.112898,0.00943,-0.230267,-0.134288,-0.768782,-0.024339,0.200996,0.098117,-0.230521,0.246456,-0.21678,0.279014,-0.097882,0.345223,0.169621,-0.29856,-0.70602,-0.311272,-0.534998,0.250057,-0.263253,-0.317992,0.12038,-0.560644,0.076342,0.346258,0.114418,-0.054874,0.273353,-0.22894,0.170572,-0.072551,0.135254,0.147682,0.15632,-0.254572,-0.274008,-0.29881,0.284062,0.319758,0.166071,-0.072974,0.213786,0.061911,-0.646381,-0.082083,-0.039419,-0.117697,0.062805,-0.010948,0.08452,0.037285,-0.072023,0.294134,0.230214,0.107192,0.127857,-0.183183,0.080254,-0.29509,-0.103132,-0.380561,0.021847,-0.395446,-0.544606,0.287405,-0.435203,0.196069,0.229832,-0.298836,